{"learner":{"attributes":{"scikit_learn":"{\"_estimator_type\": \"classifier\"}"},"feature_names":[],"feature_types":[],"gradient_booster":{"model":{"cats":{"enc":[],"feature_segments":[],"sorted_idx":[]},"gbtree_model_param":{"num_parallel_tree":"1","num_trees":"250"},"iteration_indptr":[0,1,2,3,4,5,6,7,8,9,10,11,12,13,14,15,16,17,18,19,20,21,22,23,24,25,26,27,28,29,30,31,32,33,34,35,36,37,38,39,40,41,42,43,44,45,46,47,48,49,50,51,52,53,54,55,56,57,58,59,60,61,62,63,64,65,66,67,68,69,70,71,72,73,74,75,76,77,78,79,80,81,82,83,84,85,86,87,88,89,90,91,92,93,94,95,96,97,98,99,100,101,102,103,104,105,106,107,108,109,110,111,112,113,114,115,116,117,118,119,120,121,122,123,124,125,126,127,128,129,130,131,132,133,134,135,136,137,138,139,140,141,142,143,144,145,146,147,148,149,150,151,152,153,154,155,156,157,158,159,160,161,162,163,164,165,166,167,168,169,170,171,172,173,174,175,176,177,178,179,180,181,182,183,184,185,186,187,188,189,190,191,192,193,194,195,196,197,198,199,200,201,202,203,204,205,206,207,208,209,210,211,212,213,214,215,216,217,218,219,220,221,222,223,224,225,226,227,228,229,230,231,232,233,234,235,236,237,238,239,240,241,242,243,244,245,246,247,248,249,250],"tree_info":[0,0,0,0,0,0,0,0,0,0,0,0,0,0,0,0,0,0,0,0,0,0,0,0,0,0,0,0,0,0,0,0,0,0,0,0,0,0,0,0,0,0,0,0,0,0,0,0,0,0,0,0,0,0,0,0,0,0,0,0,0,0,0,0,0,0,0,0,0,0,0,0,0,0,0,0,0,0,0,0,0,0,0,0,0,0,0,0,0,0,0,0,0,0,0,0,0,0,0,0,0,0,0,0,0,0,0,0,0,0,0,0,0,0,0,0,0,0,0,0,0,0,0,0,0,0,0,0,0,0,0,0,0,0,0,0,0,0,0,0,0,0,0,0,0,0,0,0,0,0,0,0,0,0,0,0,0,0,0,0,0,0,0,0,0,0,0,0,0,0,0,0,0,0,0,0,0,0,0,0,0,0,0,0,0,0,0,0,0,0,0,0,0,0,0,0,0,0,0,0,0,0,0,0,0,0,0,0,0,0,0,0,0,0,0,0,0,0,0,0,0,0,0,0,0,0,0,0,0,0,0,0,0,0,0,0,0,0,0,0,0,0,0,0,0,0,0,0,0,0],"trees":[{"base_weights":[5.7444517E-2,-1.8550339E0,1.7746421E0,-2.0482526E0,6.2995416E-1,1.2091659E-2,1.8220773E0,7.285818E-3,-1.0528686E-1,-3.7277196E-2,6.671363E-2,9.191429E-2,2.9567325E-2],"categories":[],"categories_nodes":[],"categories_segments":[],"categories_sizes":[],"default_left":[0,0,0,0,0,0,0,0,0,0,0,0,0],"id":0,"left_children":[1,3,5,7,9,-1,11,-1,-1,-1,-1,-1,-1],"loss_changes":[3.8162216E2,2.7693634E1,4.0098877E0,6.7714844E0,5.5791063E0,0E0,9.428406E-2,0E0,0E0,0E0,0E0,0E0,0E0],"parents":[2147483647,0,0,1,1,2,2,3,3,4,4,6,6],"right_children":[2,4,6,8,10,-1,12,-1,-1,-1,-1,-1,-1],"split_conditions":[-3.204995E-1,1.0742626E0,-7.9600376E-1,-3.439536E-1,-5.9502745E-1,1.2091659E-2,2.9715142E-1,7.285818E-3,-1.0528686E-1,-3.7277196E-2,6.671363E-2,9.191429E-2,2.9567325E-2],"split_indices":[25,657,656,697,25,0,34,0,0,0,0,0,0],"split_type":[0,0,0,0,0,0,0,0,0,0,0,0,0],"sum_hessian":[1.1420043E2,5.3990185E1,6.021025E1,5.0258144E1,3.7320404E0,1.9904215E0,5.821983E1,1.2440134E0,4.901413E1,1.2440134E0,2.4880269E0,5.6975815E1,1.2440134E0],"tree_param":{"num_deleted":"0","num_feature":"768","num_nodes":"13","size_leaf_vector":"1"}},{"base_weights":[1.370209E-2,-1.6825695E0,1.7296189E0,-1.9220169E0,6.974347E-1,5.645996E-3,8.81878E-2,-9.978761E-2,1.7344082E-2,-5.845176E-2,7.194879E-2],"categories":[],"categories_nodes":[],"categories_segments":[],"categories_sizes":[],"default_left":[0,0,0,0,0,0,0,0,0,0,0],"id":1,"left_children":[1,3,5,7,9,-1,-1,-1,-1,-1,-1],"loss_changes":[3.3098776E2,3.3931824E1,2.9205017E0,9.429871E0,9.9333E0,0E0,0E0,0E0,0E0,0E0,0E0],"parents":[2147483647,0,0,1,1,2,2,3,3,4,4],"right_children":[2,4,6,8,10,-1,-1,-1,-1,-1,-1],"split_conditions":[-3.0525243E-1,1.0742626E0,2.8486052E-1,2.6413321E-1,4.0099084E-1,5.645996E-3,8.81878E-2,-9.978761E-2,1.7344082E-2,-5.845176E-2,7.194879E-2],"split_indices":[25,657,357,543,91,0,0,0,0,0,0],"split_type":[0,0,0,0,0,0,0,0,0,0,0],"sum_hessian":[1.1171582E2,5.6189278E1,5.5526543E1,5.1227787E1,4.961493E0,1.237293E0,5.428925E1,4.973197E1,1.4958136E0,1.2467954E0,3.7146976E0],"tree_param":{"num_deleted":"0","num_feature":"768","num_nodes":"11","size_leaf_vector":"1"}},{"base_weights":[-2.076133E-2,1.4159772E0,-1.8324256E0,-8.714904E-1,1.6568004E0,-9.517515E-2,1.5431458E-2,-7.970926E-2,3.871325E-2,8.517536E-2,4.290329E-3],"categories":[],"categories_nodes":[],"categories_segments":[],"categories_sizes":[],"default_left":[0,0,0,0,0,0,0,0,0,0,0],"id":2,"left_children":[1,3,5,7,9,-1,-1,-1,-1,-1,-1],"loss_changes":[2.9676025E2,3.6476044E1,8.260635E0,9.218249E0,4.1009064E0,0E0,0E0,0E0,0E0,0E0,0E0],"parents":[2147483647,0,0,1,1,2,2,3,3,4,4],"right_children":[2,4,6,8,10,-1,-1,-1,-1,-1,-1],"split_conditions":[-3.0416313E-1,-7.137074E-1,7.9158604E-2,7.1852475E-1,1.1082896E0,-9.517515E-2,1.5431458E-2,-7.970926E-2,3.871325E-2,8.517536E-2,4.290329E-3],"split_indices":[381,656,656,91,341,0,0,0,0,0,0],"split_type":[0,0,0,0,0,0,0,0,0,0,0],"sum_hessian":[1.12015076E2,6.259365E1,4.9421425E1,5.7126875E0,5.6880962E1,4.7940865E1,1.4805585E0,3.9913259E0,1.7213615E0,5.5156765E1,1.7241992E0],"tree_param":{"num_deleted":"0","num_feature":"768","num_nodes":"11","size_leaf_vector":"1"}},{"base_weights":[2.3907766E-2,-1.566568E0,1.5679607E0,6.195153E-2,-1.714637E0,2.240118E-1,8.2337E-2,-9.033262E-2,1.7385073E-1,5.7712812E-2,-5.9516516E-2,4.691599E-2,-3.301237E-2],"categories":[],"categories_nodes":[],"categories_segments":[],"categories_sizes":[],"default_left":[0,0,0,0,0,0,0,0,0,0,0,0,0],"id":3,"left_children":[1,3,5,-1,7,9,-1,-1,11,-1,-1,-1,-1],"loss_changes":[2.8456927E2,2.5840149E1,5.8553925E0,0E0,9.8098755E0,7.179681E0,0E0,0E0,2.8200858E0,0E0,0E0,0E0,0E0],"parents":[2147483647,0,0,1,1,2,2,4,4,5,5,8,8],"right_children":[2,4,6,-1,8,10,-1,-1,12,-1,-1,-1,-1],"split_conditions":[-3.0525243E-1,-8.005676E-1,-8.033696E-1,6.195153E-2,9.598372E-2,6.027881E-1,8.2337E-2,-9.033262E-2,-3.2840726E-1,5.7712812E-2,-5.9516516E-2,4.691599E-2,-3.301237E-2],"split_indices":[25,132,268,0,639,43,0,0,29,0,0,0,0],"split_type":[0,0,0,0,0,0,0,0,0,0,0,0,0],"sum_hessian":[1.1387717E2,5.6088135E1,5.7789036E1,2.4423697E0,5.3645763E1,3.412713E0,5.4376324E1,5.119467E1,2.4510927E0,2.1696062E0,1.2431067E0,1.2137308E0,1.2373619E0],"tree_param":{"num_deleted":"0","num_feature":"768","num_nodes":"13","size_leaf_vector":"1"}},{"base_weights":[4.3226104E-2,-1.5169795E0,1.3011683E0,-1.7155257E0,9.098224E-1,1.4995966E0,-6.5120125E-1,-1.1430928E-2,-8.745807E-2,6.0843155E-3,5.7693105E-2,-2.7400816E-2,1.5710648E0,-6.397296E-2,4.8211765E-2,7.0956135E-3,7.999836E-2],"categories":[],"categories_nodes":[],"categories_segments":[],"categories_sizes":[],"default_left":[0,0,0,0,0,0,0,0,0,0,0,0,0,0,0,0,0],"id":4,"left_children":[1,3,5,7,9,11,13,-1,-1,-1,-1,-1,15,-1,-1,-1,-1],"loss_changes":[2.279249E2,2.6544106E1,2.5877037E1,2.0145264E0,7.3947835E-1,9.443466E0,7.959629E0,0E0,0E0,0E0,0E0,0E0,2.1244202E0,0E0,0E0,0E0,0E0],"parents":[2147483647,0,0,1,1,2,2,3,3,4,4,5,5,6,6,12,12],"right_children":[2,4,6,8,10,12,14,-1,-1,-1,-1,-1,16,-1,-1,-1,-1],"split_conditions":[-2.9984966E-1,4.8182714E-1,2.9772738E-1,-5.151894E-1,-1.21747695E-1,-7.005531E-1,7.8992224E-1,-1.1430928E-2,-8.745807E-2,6.0843155E-3,5.7693105E-2,-2.7400816E-2,-9.181249E-1,-6.397296E-2,4.8211765E-2,7.0956135E-3,7.999836E-2],"split_indices":[640,256,658,24,31,752,637,0,0,0,0,0,656,0,0,0,0],"split_type":[0,0,0,0,0,0,0,0,0,0,0,0,0,0,0,0,0],"sum_hessian":[1.1412559E2,5.0850548E1,6.327504E1,4.7275814E1,3.5747306E0,5.7647926E1,5.6271133E0,1.2182504E0,4.6057564E1,1.199507E0,2.3752236E0,1.719352E0,5.5928574E1,4.2012057E0,1.4259075E0,1.2257982E0,5.4702778E1],"tree_param":{"num_deleted":"0","num_feature":"768","num_nodes":"17","size_leaf_vector":"1"}},{"base_weights":[5.0256908E-2,-1.4355663E0,1.4906759E0,-1.6593868E0,6.8657637E-1,1.5352286E0,5.7424745E-4,-9.422498E-3,-8.4584065E-2,-4.955401E-2,6.6113494E-2,2.1401096E-2,7.755591E-2],"categories":[],"categories_nodes":[],"categories_segments":[],"categories_sizes":[],"default_left":[0,0,0,0,0,0,0,0,0,0,0,0,0],"id":5,"left_children":[1,3,5,7,9,11,-1,-1,-1,-1,-1,-1,-1],"loss_changes":[2.4332195E2,2.7728912E1,3.7855835E0,2.1006622E0,7.7607927E0,3.2156372E-1,0E0,0E0,0E0,0E0,0E0,0E0,0E0],"parents":[2147483647,0,0,1,1,2,2,3,3,4,4,5,5],"right_children":[2,4,6,8,10,12,-1,-1,-1,-1,-1,-1,-1],"split_conditions":[-3.204995E-1,1.0742626E0,1.1743717E0,-2.6372933E-1,4.0099084E-1,-2.4616541E-1,5.7424745E-4,-9.422498E-3,-8.4584065E-2,-4.955401E-2,6.6113494E-2,2.1401096E-2,7.755591E-2],"split_indices":[25,657,341,22,91,91,0,0,0,0,0,0,0],"split_type":[0,0,0,0,0,0,0,0,0,0,0,0,0],"sum_hessian":[1.1169092E2,5.4980606E1,5.6710308E1,4.9932346E1,5.048259E0,5.501538E1,1.6949282E0,1.2195629E0,4.8712784E1,1.2336043E0,3.8146546E0,1.1736127E0,5.3841766E1],"tree_param":{"num_deleted":"0","num_feature":"768","num_nodes":"13","size_leaf_vector":"1"}},{"base_weights":[-8.3188124E-2,-1.4058956E0,1.4241723E0,-1.5942954E0,8.2671756E-1,-1.786982E-2,1.4741203E0,9.664532E-3,-8.189523E-2,-1.295917E-2,6.0567E-2,4.6681077E-3,7.532485E-2],"categories":[],"categories_nodes":[],"categories_segments":[],"categories_sizes":[],"default_left":[0,0,0,0,0,0,0,0,0,0,0,0,0],"id":6,"left_children":[1,3,5,7,9,-1,11,-1,-1,-1,-1,-1,-1],"loss_changes":[2.2099234E2,2.6136658E1,5.139084E0,4.584961E0,2.5067477E0,0E0,2.1219864E0,0E0,0E0,0E0,0E0,0E0,0E0],"parents":[2147483647,0,0,1,1,2,2,3,3,4,4,6,6],"right_children":[2,4,6,8,10,-1,12,-1,-1,-1,-1,-1,-1],"split_conditions":[-3.0525243E-1,1.1046894E0,-4.820587E-1,-8.2353085E-1,-2.1780238E-1,-1.786982E-2,-9.181249E-1,9.664532E-3,-8.189523E-2,-1.295917E-2,6.0567E-2,4.6681077E-3,7.532485E-2],"split_indices":[25,657,401,425,75,0,656,0,0,0,0,0,0],"split_type":[0,0,0,0,0,0,0,0,0,0,0,0,0],"sum_hessian":[1.0883572E2,5.8004303E1,5.083141E1,5.3754147E1,4.2501545E0,1.2183753E0,4.9613037E1,1.1983963E0,5.255575E1,1.1969504E0,3.053204E0,1.2256777E0,4.838736E1],"tree_param":{"num_deleted":"0","num_feature":"768","num_nodes":"13","size_leaf_vector":"1"}},{"base_weights":[8.648981E-2,1.2668835E0,-1.4885846E0,1.4187322E0,-5.467812E-2,2.5847435E-2,-1.551399E0,-4.5248546E-2,7.412168E-2,-7.9318665E-2,-6.875234E-3],"categories":[],"categories_nodes":[],"categories_segments":[],"categories_sizes":[],"default_left":[0,0,0,0,0,0,0,0,0,0,0],"id":7,"left_children":[1,3,5,7,-1,-1,9,-1,-1,-1,-1],"loss_changes":[2.0279774E2,2.388565E1,6.6916428E0,1.0071983E1,0E0,0E0,2.035904E0,0E0,0E0,0E0,0E0],"parents":[2147483647,0,0,1,1,2,2,3,3,6,6],"right_children":[2,4,6,8,-1,-1,10,-1,-1,-1,-1],"split_conditions":[-2.5961706E-1,1.2067959E0,-5.1470935E-1,-1.1480951E0,-5.467812E-2,2.5847435E-2,6.314227E-1,-4.5248546E-2,7.412168E-2,-7.9318665E-2,-6.875234E-3],"split_indices":[381,341,444,261,0,0,380,0,0,0,0],"split_type":[0,0,0,0,0,0,0,0,0,0,0],"sum_hessian":[1.07063156E2,6.1311047E1,4.575211E1,5.7980114E1,3.3309326E0,1.1698976E0,4.4582214E1,1.1946652E0,5.6785446E1,4.3386997E1,1.1952161E0],"tree_param":{"num_deleted":"0","num_feature":"768","num_nodes":"11","size_leaf_vector":"1"}},{"base_weights":[-4.4696875E-2,-1.3279593E0,1.3697754E0,-1.4993117E0,5.5451757E-1,-1.6593551E-2,1.4180658E0,9.953258E-3,-7.714379E-2,5.9965968E-2,-4.6210136E-2,7.179352E-2,1.6687661E-2],"categories":[],"categories_nodes":[],"categories_segments":[],"categories_sizes":[],"default_left":[0,0,0,0,0,0,0,0,0,0,0,0,0],"id":8,"left_children":[1,3,5,7,9,-1,11,-1,-1,-1,-1,-1,-1],"loss_changes":[1.9428789E2,1.8928703E1,4.6558075E0,4.1318207E0,6.2675204E0,0E0,4.8056793E-1,0E0,0E0,0E0,0E0,0E0,0E0],"parents":[2147483647,0,0,1,1,2,2,3,3,4,4,6,6],"right_children":[2,4,6,8,10,-1,12,-1,-1,-1,-1,-1,-1],"split_conditions":[-3.0525243E-1,1.0742626E0,-4.820587E-1,-1.347885E-1,7.830979E-1,-1.6593551E-2,1.3628953E0,9.953258E-3,-7.714379E-2,5.9965968E-2,-4.6210136E-2,7.179352E-2,1.6687661E-2],"split_indices":[25,657,401,340,325,0,152,0,0,0,0,0,0],"split_type":[0,0,0,0,0,0,0,0,0,0,0,0,0],"sum_hessian":[1.0503534E2,5.5104046E1,4.9931297E1,5.0693237E1,4.4108086E0,1.2158271E0,4.871547E1,1.1785154E0,4.951472E1,3.2030525E0,1.207756E0,4.760949E1,1.1059792E0],"tree_param":{"num_deleted":"0","num_feature":"768","num_nodes":"13","size_leaf_vector":"1"}},{"base_weights":[2.7003955E-2,-1.2496562E0,1.3555535E0,-1.4301434E0,6.185607E-1,-2.583728E-3,1.3889533E0,-7.497649E-2,3.6587939E-3,-4.1722823E-2,6.055451E-2,1.5853684E-2,7.032025E-2],"categories":[],"categories_nodes":[],"categories_segments":[],"categories_sizes":[],"default_left":[0,0,0,0,0,0,0,0,0,0,0,0,0],"id":9,"left_children":[1,3,5,7,9,-1,11,-1,-1,-1,-1,-1,-1],"loss_changes":[1.7613791E2,1.8745346E1,2.4632034E0,5.179695E0,5.6292696E0,0E0,4.8443604E-1,0E0,0E0,0E0,0E0,0E0,0E0],"parents":[2147483647,0,0,1,1,2,2,3,3,4,4,6,6],"right_children":[2,4,6,8,10,-1,12,-1,-1,-1,-1,-1,-1],"split_conditions":[-3.0525243E-1,-1.7920358E-1,-1.2865627E0,1.0742626E0,-5.623546E-1,-2.583728E-3,-1.0326288E0,-7.497649E-2,3.6587939E-3,-4.1722823E-2,6.055451E-2,1.5853684E-2,7.032025E-2],"split_indices":[25,268,629,657,82,0,501,0,0,0,0,0,0],"split_type":[0,0,0,0,0,0,0,0,0,0,0,0,0],"sum_hessian":[1.0184965E2,5.1969406E1,4.9880245E1,4.7604824E1,4.3645835E0,1.1437474E0,4.8736496E1,4.550695E1,2.0978715E0,1.1460105E0,3.218573E0,1.0878768E0,4.764862E1],"tree_param":{"num_deleted":"0","num_feature":"768","num_nodes":"13","size_leaf_vector":"1"}},{"base_weights":[2.4019424E-2,-1.1306053E0,1.1968172E0,8.973064E-1,-1.3267443E0,-4.714503E-1,1.3293953E0,5.4611396E-2,3.505693E-3,3.4560606E-2,-1.4250828E0,-5.819797E-2,3.8585026E-2,-4.225864E-3,6.9252215E-2,-7.3246464E-2,4.2572212E-3],"categories":[],"categories_nodes":[],"categories_segments":[],"categories_sizes":[],"default_left":[0,0,0,0,0,0,0,0,0,0,0,0,0,0,0,0,0],"id":10,"left_children":[1,3,5,7,9,11,13,-1,-1,-1,15,-1,-1,-1,-1,-1,-1],"loss_changes":[1.4099226E2,2.2063301E1,1.2048981E1,7.658024E-1,1.0560371E1,4.806837E0,3.901947E0,0E0,0E0,0E0,2.9131546E0,0E0,0E0,0E0,0E0,0E0,0E0],"parents":[2147483647,0,0,1,1,2,2,3,3,4,4,5,5,6,6,10,10],"right_children":[2,4,6,8,10,12,14,-1,-1,-1,16,-1,-1,-1,-1,-1,-1],"split_conditions":[-8.195698E-2,-3.516594E-1,-3.64949E-1,-1.6487491E-1,-1.2244722E0,4.1781923E-1,-5.180371E-1,5.4611396E-2,3.505693E-3,3.4560606E-2,1.1948436E0,-5.819797E-2,3.8585026E-2,-4.225864E-3,6.9252215E-2,-7.3246464E-2,4.2572212E-3],"split_indices":[640,175,274,156,625,47,244,0,0,0,657,0,0,0,0,0,0],"split_type":[0,0,0,0,0,0,0,0,0,0,0,0,0,0,0,0,0],"sum_hessian":[1.0212006E2,5.147685E1,5.064322E1,4.2244773E0,4.7252373E1,3.5401785E0,4.710304E1,3.1595504E0,1.0649271E0,1.9155416E0,4.533683E1,2.3145425E0,1.225636E0,1.7640431E0,4.5338997E1,4.4200615E1,1.1362137E0],"tree_param":{"num_deleted":"0","num_feature":"768","num_nodes":"17","size_leaf_vector":"1"}},{"base_weights":[2.3378672E-2,1.1702888E0,-1.2878513E0,1.2987581E0,-4.564988E-2,-1.3574345E0,3.779311E-2,-1.2194777E-2,1.3410045E0,4.885344E-3,-1.4070143E0,6.770364E-2,1.8826121E-2,-7.122446E-2,-1.9996421E-2],"categories":[],"categories_nodes":[],"categories_segments":[],"categories_sizes":[],"default_left":[0,0,0,0,0,0,0,0,0,0,0,0,0,0,0],"id":11,"left_children":[1,3,5,7,-1,9,-1,-1,11,-1,13,-1,-1,-1,-1],"loss_changes":[1.4016168E2,1.4488739E1,7.2112274E0,3.405159E0,0E0,3.1978455E0,0E0,0E0,7.154083E-2,0E0,1.5337372E-1,0E0,0E0,0E0,0E0],"parents":[2147483647,0,0,1,1,2,2,3,3,5,5,8,8,10,10],"right_children":[2,4,6,8,-1,10,-1,-1,12,-1,14,-1,-1,-1,-1],"split_conditions":[-3.4101096E-1,1.3374091E0,1.2630029E0,-3.0811286E-1,-4.564988E-2,-9.9985564E-1,3.779311E-2,-1.2194777E-2,8.974589E-1,4.885344E-3,9.2999566E-1,6.770364E-2,1.8826121E-2,-7.122446E-2,-1.9996421E-2],"split_indices":[381,341,657,155,0,127,0,0,162,0,175,0,0,0,0],"split_type":[0,0,0,0,0,0,0,0,0,0,0,0,0,0,0],"sum_hessian":[9.119891E1,4.8704994E1,4.2493923E1,4.6230682E1,2.4743106E0,4.1419495E1,1.0744275E0,1.1050729E0,4.512561E1,1.332765E0,4.008673E1,4.412381E1,1.0017993E0,3.8995617E1,1.0911152E0],"tree_param":{"num_deleted":"0","num_feature":"768","num_nodes":"15","size_leaf_vector":"1"}},{"base_weights":[3.5846012E-3,-1.1530572E0,1.2570798E0,-1.3810968E0,4.0940005E-1,1.8219595E-1,6.6320725E-2,-6.985568E-2,-1.9034429E-2,5.988046E-2,-5.228881E-2,-3.885014E-2,4.36857E-2],"categories":[],"categories_nodes":[],"categories_segments":[],"categories_sizes":[],"default_left":[0,0,0,0,0,0,0,0,0,0,0,0,0],"id":12,"left_children":[1,3,5,7,9,11,-1,-1,-1,-1,-1,-1,-1],"loss_changes":[1.3925223E2,1.8364357E1,3.1934052E0,1.7030334E-1,9.434575E0,3.3003857E0,0E0,0E0,0E0,0E0,0E0,0E0,0E0],"parents":[2147483647,0,0,1,1,2,2,3,3,4,4,5,5],"right_children":[2,4,6,8,10,12,-1,-1,-1,-1,-1,-1,-1],"split_conditions":[-3.0525243E-1,1.02644E0,-8.033696E-1,-1.7544907E-2,7.2246426E-1,8.7738395E-2,6.6320725E-2,-6.985568E-2,-1.9034429E-2,5.988046E-2,-5.228881E-2,-3.885014E-2,4.36857E-2],"split_indices":[25,657,268,84,241,167,0,0,0,0,0,0,0],"split_type":[0,0,0,0,0,0,0,0,0,0,0,0,0],"sum_hessian":[9.404654E1,4.8954613E1,4.5091923E1,4.282099E1,6.133621E0,2.9522004E0,4.2139725E1,4.1755917E1,1.0650723E0,4.093397E0,2.0402243E0,1.1849489E0,1.7672515E0],"tree_param":{"num_deleted":"0","num_feature":"768","num_nodes":"13","size_leaf_vector":"1"}},{"base_weights":[1.0116057E-3,-1.1686187E0,1.2521058E0,6.5217406E-1,-1.3139341E0,-4.7274563E-3,1.288786E0,4.9481254E-2,-9.533432E-3,6.9373595E-3,-6.845578E-2,6.52703E-2,1.4857086E-2],"categories":[],"categories_nodes":[],"categories_segments":[],"categories_sizes":[],"default_left":[0,0,0,0,0,0,0,0,0,0,0,0,0],"id":13,"left_children":[1,3,5,7,9,-1,11,-1,-1,-1,-1,-1,-1],"loss_changes":[1.3325302E2,1.3309479E1,2.2951965E0,1.368112E0,3.7103958E0,0E0,3.191452E-1,0E0,0E0,0E0,0E0,0E0,0E0],"parents":[2147483647,0,0,1,1,2,2,3,3,4,4,6,6],"right_children":[2,4,6,8,10,-1,12,-1,-1,-1,-1,-1,-1],"split_conditions":[-3.0525243E-1,-1.081798E0,-7.619087E-1,-4.4055286E-1,-7.11839E-2,-4.7274563E-3,1.2980192E0,4.9481254E-2,-9.533432E-3,6.9373595E-3,-6.845578E-2,6.52703E-2,1.4857086E-2],"split_indices":[25,628,653,501,377,0,545,0,0,0,0,0,0],"split_type":[0,0,0,0,0,0,0,0,0,0,0,0,0],"sum_hessian":[8.906231E1,4.606382E1,4.2998493E1,3.1467862E0,4.2917034E1,1.0983076E0,4.1900185E1,2.1227455E0,1.0240406E0,1.5151618E0,4.140187E1,4.0898327E1,1.0018574E0],"tree_param":{"num_deleted":"0","num_feature":"768","num_nodes":"13","size_leaf_vector":"1"}},{"base_weights":[-5.596233E-2,-1.1478512E0,1.1873407E0,-1.3072124E0,2.700305E-1,-2.0613974E-2,6.406957E-2,-6.7508444E-2,1.0366829E-2,4.631636E-2,-4.2305168E-2,-5.4552373E-2,4.3336745E-2],"categories":[],"categories_nodes":[],"categories_segments":[],"categories_sizes":[],"default_left":[0,0,0,0,0,0,0,0,0,0,0,0,0],"id":14,"left_children":[1,3,5,7,9,11,-1,-1,-1,-1,-1,-1,-1],"loss_changes":[1.2002627E2,1.0983574E1,4.7255898E0,3.042694E0,4.8729234E0,4.718457E0,0E0,0E0,0E0,0E0,0E0,0E0,0E0],"parents":[2147483647,0,0,1,1,2,2,3,3,4,4,5,5],"right_children":[2,4,6,8,10,12,-1,-1,-1,-1,-1,-1,-1],"split_conditions":[-3.0525243E-1,2.3505378E-1,-8.033696E-1,5.488337E-1,-6.033694E-2,8.7738395E-2,6.406957E-2,-6.7508444E-2,1.0366829E-2,4.631636E-2,-4.2305168E-2,-5.4552373E-2,4.3336745E-2],"split_indices":[25,75,268,193,381,167,0,0,0,0,0,0,0],"split_type":[0,0,0,0,0,0,0,0,0,0,0,0,0],"sum_hessian":[8.6410034E1,4.604731E1,4.0362724E1,4.146496E1,4.58235E0,2.9720137E0,3.739071E1,4.0426884E1,1.0380746E0,2.992683E0,1.589667E0,1.2429955E0,1.7290182E0],"tree_param":{"num_deleted":"0","num_feature":"768","num_nodes":"13","size_leaf_vector":"1"}},{"base_weights":[-2.5169946E-2,-1.0874009E0,1.1878791E0,-1.2879709E0,4.2490184E-1,1.2432942E0,-1.5917318E-2,8.8904373E-4,-6.6094056E-2,-4.635336E-2,5.6850184E-2,1.2280176E-2,6.31372E-2],"categories":[],"categories_nodes":[],"categories_segments":[],"categories_sizes":[],"default_left":[0,0,0,0,0,0,0,0,0,0,0,0,0],"id":15,"left_children":[1,3,5,7,9,11,-1,-1,-1,-1,-1,-1,-1],"loss_changes":[1.1351185E2,1.478949E1,3.8294067E0,1.8700867E0,7.0712514E0,4.637642E-1,0E0,0E0,0E0,0E0,0E0,0E0,0E0],"parents":[2147483647,0,0,1,1,2,2,3,3,4,4,5,5],"right_children":[2,4,6,8,10,12,-1,-1,-1,-1,-1,-1,-1],"split_conditions":[-3.0525243E-1,1.02644E0,1.0096046E0,-7.6131165E-1,1.0977108E-2,-6.943846E-1,-1.5917318E-2,8.8904373E-4,-6.6094056E-2,-4.635336E-2,5.6850184E-2,1.2280176E-2,6.31372E-2],"split_indices":[25,657,263,575,207,752,0,0,0,0,0,0,0],"split_type":[0,0,0,0,0,0,0,0,0,0,0,0,0],"sum_hessian":[8.609106E1,4.5954044E1,4.013701E1,4.070399E1,5.2500534E0,3.8881107E1,1.2559018E0,1.0423577E0,3.9661633E1,1.7071154E0,3.5429378E0,1.0040758E0,3.787703E1],"tree_param":{"num_deleted":"0","num_feature":"768","num_nodes":"13","size_leaf_vector":"1"}},{"base_weights":[2.4335824E-3,-1.0773677E0,1.1661267E0,-1.2302849E0,7.4643004E-1,-4.3818332E-2,6.2143724E-2,2.7205566E-2,-6.4814635E-2,4.8053626E-2,3.3643774E-3,3.6132287E-2,-3.9207272E-2],"categories":[],"categories_nodes":[],"categories_segments":[],"categories_sizes":[],"default_left":[0,0,0,0,0,0,0,0,0,0,0,0,0],"id":16,"left_children":[1,3,5,7,9,11,-1,-1,-1,-1,-1,-1,-1],"loss_changes":[1.0234572E2,1.270105E1,3.6946602E0,5.3150787E0,5.0249195E-1,2.4415557E0,0E0,0E0,0E0,0E0,0E0,0E0,0E0],"parents":[2147483647,0,0,1,1,2,2,3,3,4,4,5,5],"right_children":[2,4,6,8,10,12,-1,-1,-1,-1,-1,-1,-1],"split_conditions":[-3.0525243E-1,1.0742626E0,-6.8380743E-1,-1.347885E-1,4.3748528E-1,-1.5865548E-2,6.2143724E-2,2.7205566E-2,-6.4814635E-2,4.8053626E-2,3.3643774E-3,3.6132287E-2,-3.9207272E-2],"split_indices":[25,657,656,340,325,35,0,0,0,0,0,0,0],"split_type":[0,0,0,0,0,0,0,0,0,0,0,0,0],"sum_hessian":[7.9449455E1,4.124865E1,3.8200806E1,3.8357937E1,2.8907135E0,2.3041654E0,3.589664E1,1.1159612E0,3.7241978E1,1.8810748E0,1.0096387E0,1.143833E0,1.1603324E0],"tree_param":{"num_deleted":"0","num_feature":"768","num_nodes":"13","size_leaf_vector":"1"}},{"base_weights":[-7.406777E-2,-1.0860686E0,1.1421527E0,7.4337363E-1,-1.213289E0,-1.1430016E-2,1.201408E0,4.412983E-2,1.00293225E-2,-6.425916E-2,2.5230303E-2,1.2293781E-2,6.117499E-2],"categories":[],"categories_nodes":[],"categories_segments":[],"categories_sizes":[],"default_left":[0,0,0,0,0,0,0,0,0,0,0,0,0],"id":17,"left_children":[1,3,5,7,9,-1,11,-1,-1,-1,-1,-1,-1],"loss_changes":[9.893977E1,1.1105106E1,3.242485E0,8.521938E-2,5.7577934E0,0E0,4.4189072E-1,0E0,0E0,0E0,0E0,0E0,0E0],"parents":[2147483647,0,0,1,1,2,2,3,3,4,4,6,6],"right_children":[2,4,6,8,10,-1,12,-1,-1,-1,-1,-1,-1],"split_conditions":[-3.0525243E-1,-2.1196556E-1,-7.9600376E-1,5.5656753E-2,1.2630029E0,-1.1430016E-2,5.4127738E-2,4.412983E-2,1.00293225E-2,-6.425916E-2,2.5230303E-2,1.2293781E-2,6.117499E-2],"split_indices":[25,697,656,161,657,0,20,0,0,0,0,0,0],"split_type":[0,0,0,0,0,0,0,0,0,0,0,0,0],"sum_hessian":[7.837767E1,4.283896E1,3.5538715E1,2.4704478E0,4.036851E1,1.3541976E0,3.4184517E1,1.4678932E0,1.0025547E0,3.8988712E1,1.3797967E0,1.0465821E0,3.3137936E1],"tree_param":{"num_deleted":"0","num_feature":"768","num_nodes":"13","size_leaf_vector":"1"}},{"base_weights":[3.949388E-3,9.964738E-1,-1.0087044E0,-4.1035634E-2,1.1104254E0,-1.2017577E0,6.432641E-1,-1.6869429E-1,6.050532E-2,-6.284787E-2,-1.9953232E-1,-1.2449574E-2,4.7118425E-2,-4.2479504E-2,3.456448E-2,-3.3620607E-2,1.9436168E-2],"categories":[],"categories_nodes":[],"categories_segments":[],"categories_sizes":[],"default_left":[0,0,0,0,0,0,0,0,0,0,0,0,0,0,0,0,0],"id":18,"left_children":[1,3,5,-1,7,9,11,13,-1,-1,15,-1,-1,-1,-1,-1,-1],"loss_changes":[8.085024E1,9.323074E0,1.3471989E1,0E0,5.1322174E0,1.7408638E0,1.5204002E0,2.7374287E0,0E0,0E0,1.114826E0,0E0,0E0,0E0,0E0,0E0,0E0],"parents":[2147483647,0,0,1,1,2,2,4,4,5,5,6,6,7,7,10,10],"right_children":[2,4,6,-1,8,10,12,14,-1,-1,16,-1,-1,-1,-1,-1,-1],"split_conditions":[8.8803075E-2,-9.6783495E-1,-1.6749889E-1,-4.1035634E-2,-1.0505329E0,-1.6770254E-1,7.386417E-1,9.2961353E-1,6.050532E-2,-6.284787E-2,-3.8946682E-1,-1.2449574E-2,4.7118425E-2,-4.2479504E-2,3.456448E-2,-3.3620607E-2,1.9436168E-2],"split_indices":[658,656,570,0,475,629,657,657,0,0,33,0,0,0,0,0,0],"split_type":[0,0,0,0,0,0,0,0,0,0,0,0,0,0,0,0,0],"sum_hessian":[7.8441246E1,3.9622417E1,3.8818832E1,1.9720367E0,3.765038E1,3.500105E1,3.8177836E0,2.6719003E0,3.497848E1,3.293303E1,2.0680194E0,1.0005614E0,2.8172224E0,1.4979658E0,1.1739346E0,1.0671283E0,1.000891E0],"tree_param":{"num_deleted":"0","num_feature":"768","num_nodes":"17","size_leaf_vector":"1"}},{"base_weights":[1.180237E-2,-1.0275997E0,1.1215066E0,-1.1828634E0,4.783404E-1,-1.7229619E-2,1.1780696E0,-6.2136482E-2,-2.6209361E-3,-3.2174822E-2,5.01659E-2,1.0395848E-2,5.999526E-2],"categories":[],"categories_nodes":[],"categories_segments":[],"categories_sizes":[],"default_left":[0,0,0,0,0,0,0,0,0,0,0,0,0],"id":19,"left_children":[1,3,5,7,9,-1,11,-1,-1,-1,-1,-1,-1],"loss_changes":[8.851066E1,9.831902E0,3.4832306E0,2.3856277E0,3.2463918E0,0E0,5.1221466E-1,0E0,0E0,0E0,0E0,0E0,0E0],"parents":[2147483647,0,0,1,1,2,2,3,3,4,4,6,6],"right_children":[2,4,6,8,10,-1,12,-1,-1,-1,-1,-1,-1],"split_conditions":[-3.204995E-1,-3.418695E-1,-4.820587E-1,2.3505378E-1,-5.2296584E-3,-1.7229619E-2,-3.522493E-1,-6.2136482E-2,-2.6209361E-3,-3.2174822E-2,5.01659E-2,1.0395848E-2,5.999526E-2],"split_indices":[25,268,401,75,18,0,65,0,0,0,0,0,0],"split_type":[0,0,0,0,0,0,0,0,0,0,0,0,0],"sum_hessian":[7.473784E1,3.8629543E1,3.610829E1,3.5213535E1,3.4160094E0,1.1521689E0,3.4956123E1,3.334815E1,1.8653867E0,1.0169995E0,2.39901E0,1.0010626E0,3.395506E1],"tree_param":{"num_deleted":"0","num_feature":"768","num_nodes":"13","size_leaf_vector":"1"}},{"base_weights":[1.3156405E-2,-1.0251757E0,1.087099E0,-1.144622E0,4.304879E-2,-2.6791267E-2,5.9283983E-2,2.1098329E-2,-1.2102848E0,4.0167134E-2,-5.185905E-2,-6.1489344E-2,-1.4549524E-2],"categories":[],"categories_nodes":[],"categories_segments":[],"categories_sizes":[],"default_left":[0,0,0,0,0,0,0,0,0,0,0,0,0],"id":20,"left_children":[1,3,5,7,-1,9,-1,-1,11,-1,-1,-1,-1],"loss_changes":[8.387701E1,9.602959E0,4.091301E0,4.255165E0,0E0,4.174591E0,0E0,0E0,2.731247E-1,0E0,0E0,0E0,0E0],"parents":[2147483647,0,0,1,1,2,2,3,3,5,5,8,8],"right_children":[2,4,6,8,-1,10,-1,-1,12,-1,-1,-1,-1],"split_conditions":[-3.204995E-1,1.2630029E0,-8.033696E-1,-9.9985564E-1,4.304879E-2,-2.1022257E-1,5.9283983E-2,2.1098329E-2,-2.1789196E-1,4.0167134E-2,-5.185905E-2,-6.1489344E-2,-1.4549524E-2],"split_indices":[25,657,268,127,0,197,0,0,397,0,0,0,0],"split_type":[0,0,0,0,0,0,0,0,0,0,0,0,0],"sum_hessian":[7.321924E1,3.72499E1,3.5969337E1,3.5401157E1,1.8487427E0,2.983719E0,3.298562E1,1.205841E0,3.4195316E1,1.7504616E0,1.2332575E0,3.315423E1,1.0410879E0],"tree_param":{"num_deleted":"0","num_feature":"768","num_nodes":"13","size_leaf_vector":"1"}},{"base_weights":[1.7357834E-2,9.156649E-1,-1.1342871E0,-4.9332127E-1,1.132054E0,-1.1826527E0,7.3355557E-3,-5.340928E-2,3.25497E-2,-1.4055735E-2,5.9438836E-2,-5.9446828E-3,-6.070785E-2],"categories":[],"categories_nodes":[],"categories_segments":[],"categories_sizes":[],"default_left":[0,0,0,0,0,0,0,0,0,0,0,0,0],"id":21,"left_children":[1,3,5,7,9,11,-1,-1,-1,-1,-1,-1,-1],"loss_changes":[7.63774E1,1.3200775E1,2.1783333E0,4.784976E0,3.2398148E0,9.043312E-1,0E0,0E0,0E0,0E0,0E0,0E0,0E0],"parents":[2147483647,0,0,1,1,2,2,3,3,4,4,5,5],"right_children":[2,4,6,8,10,12,-1,-1,-1,-1,-1,-1,-1],"split_conditions":[-1.8889266E-1,-7.137074E-1,6.520904E-1,5.016699E-1,-5.263032E-1,-1.0599568E0,7.3355557E-3,-5.340928E-2,3.25497E-2,-1.4055735E-2,5.9438836E-2,-5.9446828E-3,-6.070785E-2],"split_indices":[381,656,380,637,244,482,0,0,0,0,0,0,0],"split_type":[0,0,0,0,0,0,0,0,0,0,0,0,0],"sum_hessian":[7.18241E1,4.046526E1,3.1358839E1,5.2168317E0,3.524843E1,3.0291906E1,1.0669328E0,3.5166945E0,1.700137E0,1.2075703E0,3.404086E1,1.008638E0,2.9283268E1],"tree_param":{"num_deleted":"0","num_feature":"768","num_nodes":"13","size_leaf_vector":"1"}},{"base_weights":[-7.5848512E-3,-9.734066E-1,1.0745795E0,-1.1731914E0,2.7737814E-1,1.137729E0,-2.268835E-2,-5.9688013E-2,-1.3595591E-2,-4.3726306E-2,5.1560838E-2,1.1205542E-2,5.8077108E-2],"categories":[],"categories_nodes":[],"categories_segments":[],"categories_sizes":[],"default_left":[0,0,0,0,0,0,0,0,0,0,0,0,0],"id":22,"left_children":[1,3,5,7,9,11,-1,-1,-1,-1,-1,-1,-1],"loss_changes":[7.221122E1,9.447136E0,3.6612778E0,2.62455E-1,5.9697933E0,4.267006E-1,0E0,0E0,0E0,0E0,0E0,0E0,0E0],"parents":[2147483647,0,0,1,1,2,2,3,3,4,4,5,5],"right_children":[2,4,6,8,10,12,-1,-1,-1,-1,-1,-1,-1],"split_conditions":[-3.0525243E-1,1.0053135E0,1.0096046E0,5.0030196E-1,1.0977108E-2,-8.327402E-1,-2.268835E-2,-5.9688013E-2,-1.3595591E-2,-4.3726306E-2,5.1560838E-2,1.1205542E-2,5.8077108E-2],"split_indices":[25,657,263,193,207,484,0,0,0,0,0,0,0],"split_type":[0,0,0,0,0,0,0,0,0,0,0,0,0],"sum_hessian":[6.7089096E1,3.550326E1,3.1585836E1,3.066694E1,4.83632E0,3.0577969E1,1.0078678E0,2.9665403E1,1.0015383E0,1.8497338E0,2.986586E0,1.0412292E0,2.953674E1],"tree_param":{"num_deleted":"0","num_feature":"768","num_nodes":"13","size_leaf_vector":"1"}},{"base_weights":[1.928364E-2,-9.360486E-1,1.0611335E0,-1.1588204E0,3.6535865E-1,9.793093E-3,5.74797E-2,-5.8970917E-2,-1.3589962E-2,-3.4993663E-2,5.150053E-2,-4.0149283E-2,3.531409E-2],"categories":[],"categories_nodes":[],"categories_segments":[],"categories_sizes":[],"default_left":[0,0,0,0,0,0,0,0,0,0,0,0,0],"id":23,"left_children":[1,3,5,7,9,11,-1,-1,-1,-1,-1,-1,-1],"loss_changes":[6.890788E1,1.0897064E1,3.0678482E0,2.4739838E-1,4.997591E0,2.5926726E0,0E0,0E0,0E0,0E0,0E0,0E0,0E0],"parents":[2147483647,0,0,1,1,2,2,3,3,4,4,5,5],"right_children":[2,4,6,8,10,12,-1,-1,-1,-1,-1,-1,-1],"split_conditions":[-3.0525243E-1,1.0053135E0,-1.2707462E0,1.4305781E0,1.0977108E-2,-4.7098985E-1,5.74797E-2,-5.8970917E-2,-1.3589962E-2,-3.4993663E-2,5.150053E-2,-4.0149283E-2,3.531409E-2],"split_indices":[25,657,279,395,207,82,0,0,0,0,0,0,0],"split_type":[0,0,0,0,0,0,0,0,0,0,0,0,0],"sum_hessian":[6.7234436E1,3.5126488E1,3.210795E1,3.0086E1,5.0404854E0,2.5781128E0,2.9529837E1,2.9081055E1,1.004947E0,1.9162829E0,3.1242025E0,1.1191717E0,1.4589412E0],"tree_param":{"num_deleted":"0","num_feature":"768","num_nodes":"13","size_leaf_vector":"1"}},{"base_weights":[4.1262634E-2,9.466158E-1,-1.0669401E0,-4.557641E-1,1.1232809E0,2.4689367E-2,-1.1389917E0,-4.61809E-2,2.0166256E-2,5.7602584E-2,5.60289E-3,-3.740161E-3,-5.8768447E-2],"categories":[],"categories_nodes":[],"categories_segments":[],"categories_sizes":[],"default_left":[0,0,0,0,0,0,0,0,0,0,0,0,0],"id":24,"left_children":[1,3,5,7,9,-1,11,-1,-1,-1,-1,-1,-1],"loss_changes":[6.657692E1,9.554089E0,3.9195366E0,2.2996292E0,8.2232666E-1,0E0,1.0284805E0,0E0,0E0,0E0,0E0,0E0,0E0],"parents":[2147483647,0,0,1,1,2,2,3,3,4,4,6,6],"right_children":[2,4,6,8,10,-1,12,-1,-1,-1,-1,-1,-1],"split_conditions":[-2.9467648E-1,-7.137074E-1,3.6633018E-1,-2.4289913E-1,8.70417E-1,2.4689367E-2,-8.0957115E-1,-4.61809E-2,2.0166256E-2,5.7602584E-2,5.60289E-3,-3.740161E-3,-5.8768447E-2],"split_indices":[381,656,270,335,340,0,163,0,0,0,0,0,0],"split_type":[0,0,0,0,0,0,0,0,0,0,0,0,0],"sum_hessian":[6.435031E1,3.549679E1,2.885352E1,3.7946637E0,3.170213E1,1.0149622E0,2.7838556E1,2.4081106E0,1.386553E0,3.0689697E1,1.0124325E0,1.0211738E0,2.6817383E1],"tree_param":{"num_deleted":"0","num_feature":"768","num_nodes":"13","size_leaf_vector":"1"}},{"base_weights":[2.981609E-2,-8.9619726E-1,1.1055815E0,-1.0845592E0,5.2691406E-1,1.0633355E-2,5.645811E-2,-5.7874154E-2,1.2666507E-3,4.8193105E-2,-2.3838425E-2],"categories":[],"categories_nodes":[],"categories_segments":[],"categories_sizes":[],"default_left":[0,0,0,0,0,0,0,0,0,0,0],"id":25,"left_children":[1,3,5,7,9,-1,-1,-1,-1,-1,-1],"loss_changes":[6.435475E1,9.882584E0,3.8884354E-1,2.5385551E0,2.535296E0,0E0,0E0,0E0,0E0,0E0,0E0],"parents":[2147483647,0,0,1,1,2,2,3,3,4,4],"right_children":[2,4,6,8,10,-1,-1,-1,-1,-1,-1],"split_conditions":[-3.0525243E-1,-5.1720288E-2,-1.1668677E0,1.1046894E0,6.2057704E-2,1.0633355E-2,5.645811E-2,-5.7874154E-2,1.2666507E-3,4.8193105E-2,-2.3838425E-2],"split_indices":[25,640,639,657,658,0,0,0,0,0,0],"split_type":[0,0,0,0,0,0,0,0,0,0,0],"sum_hessian":[6.2607353E1,3.3735195E1,2.8872162E1,3.0002043E1,3.7331514E0,1.0006315E0,2.7871529E1,2.8112099E1,1.8899431E0,2.6285152E0,1.1046362E0],"tree_param":{"num_deleted":"0","num_feature":"768","num_nodes":"11","size_leaf_vector":"1"}},{"base_weights":[6.1205276E-3,-9.145068E-1,1.0209886E0,-1.1010152E0,2.9906017E-1,-1.7579796E-2,5.5798437E-2,6.289468E-4,-5.7168473E-2,-3.893155E-2,4.770799E-2],"categories":[],"categories_nodes":[],"categories_segments":[],"categories_sizes":[],"default_left":[0,0,0,0,0,0,0,0,0,0,0],"id":26,"left_children":[1,3,5,7,9,-1,-1,-1,-1,-1,-1],"loss_changes":[5.627926E1,7.4788914E0,4.1272373E0,1.3158417E0,4.2689033E0,0E0,0E0,0E0,0E0,0E0,0E0],"parents":[2147483647,0,0,1,1,2,2,3,3,4,4],"right_children":[2,4,6,8,10,-1,-1,-1,-1,-1,-1],"split_conditions":[-3.0525243E-1,1.0053135E0,-6.8380743E-1,-8.028713E-2,-7.428125E-1,-1.7579796E-2,5.5798437E-2,6.289468E-4,-5.7168473E-2,-3.893155E-2,4.770799E-2],"split_indices":[25,657,656,340,182,0,0,0,0,0,0],"split_type":[0,0,0,0,0,0,0,0,0,0,0],"sum_hessian":[5.8236496E1,3.0587889E1,2.7648605E1,2.6593569E1,3.9943192E0,1.6145488E0,2.6034058E1,1.0001513E0,2.5593418E1,1.4388037E0,2.5555155E0],"tree_param":{"num_deleted":"0","num_feature":"768","num_nodes":"11","size_leaf_vector":"1"}},{"base_weights":[-1.512946E-2,-8.7097436E-1,9.855325E-1,-1.0907509E0,3.6971718E-1,5.535255E-2,-1.609104E-1,-5.6578834E-2,2.8978125E-4,-3.309417E-2,4.8972797E-2,-4.8636343E-2,3.3714797E-2],"categories":[],"categories_nodes":[],"categories_segments":[],"categories_sizes":[],"default_left":[0,0,0,0,0,0,0,0,0,0,0,0,0],"id":27,"left_children":[1,3,5,7,9,-1,11,-1,-1,-1,-1,-1,-1],"loss_changes":[5.222498E1,9.363262E0,4.095541E0,1.2675629E0,4.2283955E0,0E0,3.075118E0,0E0,0E0,0E0,0E0,0E0,0E0],"parents":[2147483647,0,0,1,1,2,2,3,3,4,4,6,6],"right_children":[2,4,6,8,10,-1,12,-1,-1,-1,-1,-1,-1],"split_conditions":[-3.0525243E-1,1.0053135E0,1.0437102E0,2.1607207E-1,1.0977108E-2,5.535255E-2,-8.033696E-1,-5.6578834E-2,2.8978125E-4,-3.309417E-2,4.8972797E-2,-4.8636343E-2,3.3714797E-2],"split_indices":[25,657,341,543,207,0,268,0,0,0,0,0,0],"split_type":[0,0,0,0,0,0,0,0,0,0,0,0,0],"sum_hessian":[5.897888E1,3.1859623E1,2.7119257E1,2.7167936E1,4.6916866E0,2.4551277E1,2.5679796E0,2.6161951E1,1.0059865E0,1.7111382E0,2.9805484E0,1.2187276E0,1.3492519E0],"tree_param":{"num_deleted":"0","num_feature":"768","num_nodes":"13","size_leaf_vector":"1"}},{"base_weights":[-5.2171934E-4,-8.974629E-1,9.9777675E-1,-1.0624664E0,5.338499E-1,-1.041652E-1,5.485742E-2,-5.619852E-2,1.1724067E-2,-3.5510182E-3,3.9232932E-2,3.0084116E-2,-3.70714E-2],"categories":[],"categories_nodes":[],"categories_segments":[],"categories_sizes":[],"default_left":[0,0,0,0,0,0,0,0,0,0,0,0,0],"id":28,"left_children":[1,3,5,7,9,11,-1,-1,-1,-1,-1,-1,-1],"loss_changes":[4.9850063E1,7.492853E0,2.999426E0,2.3875923E0,6.165445E-1,1.8372612E0,0E0,0E0,0E0,0E0,0E0,0E0,0E0],"parents":[2147483647,0,0,1,1,2,2,3,3,4,4,5,5],"right_children":[2,4,6,8,10,12,-1,-1,-1,-1,-1,-1,-1],"split_conditions":[-3.204995E-1,1.0742626E0,-8.033696E-1,3.0987316E-1,2.9999098E-1,2.067702E-1,5.485742E-2,-5.619852E-2,1.1724067E-2,-3.5510182E-3,3.9232932E-2,3.0084116E-2,-3.70714E-2],"split_indices":[25,657,268,47,496,241,0,0,0,0,0,0,0],"split_type":[0,0,0,0,0,0,0,0,0,0,0,0,0],"sum_hessian":[5.3672523E1,2.8324669E1,2.5347855E1,2.5627945E1,2.6967227E0,2.0927637E0,2.325509E1,2.4594973E1,1.0329733E0,1.0005505E0,1.6961722E0,1.0194404E0,1.0733232E0],"tree_param":{"num_deleted":"0","num_feature":"768","num_nodes":"13","size_leaf_vector":"1"}},{"base_weights":[2.2202246E-2,8.128477E-1,-1.0578771E0,1.0282032E0,-4.3785065E-1,4.689175E-3,-5.574329E-2,-1.875353E-2,5.4961305E-2,-4.783989E-2,2.3803597E-2],"categories":[],"categories_nodes":[],"categories_segments":[],"categories_sizes":[],"default_left":[0,0,0,0,0,0,0,0,0,0,0],"id":29,"left_children":[1,3,5,7,9,-1,-1,-1,-1,-1,-1],"loss_changes":[4.696801E1,8.998936E0,1.6307716E0,3.1406384E0,2.9993553E0,0E0,0E0,0E0,0E0,0E0,0E0],"parents":[2147483647,0,0,1,1,2,2,3,3,4,4],"right_children":[2,4,6,8,10,-1,-1,-1,-1,-1,-1],"split_conditions":[-1.8889266E-1,1.0437102E0,-9.731061E-1,-7.957814E-1,-4.1696915E-1,4.689175E-3,-5.574329E-2,-1.875353E-2,5.4961305E-2,-4.783989E-2,2.3803597E-2],"split_indices":[381,341,127,186,169,0,0,0,0,0,0],"split_type":[0,0,0,0,0,0,0,0,0,0,0],"sum_hessian":[5.2993305E1,3.0738998E1,2.2254307E1,2.6375366E1,4.3636327E0,1.018863E0,2.1235445E1,1.0643759E0,2.531099E1,2.7533188E0,1.6103138E0],"tree_param":{"num_deleted":"0","num_feature":"768","num_nodes":"11","size_leaf_vector":"1"}},{"base_weights":[-5.040599E-3,9.5503944E-1,-9.380747E-1,-2.9816953E-2,1.0702657E0,-1.0429708E0,3.3578243E-2,5.4513197E-2,1.55805275E-2,-5.498287E-2,1.2637159E-3],"categories":[],"categories_nodes":[],"categories_segments":[],"categories_sizes":[],"default_left":[0,0,0,0,0,0,0,0,0,0,0],"id":30,"left_children":[1,3,5,-1,7,9,-1,-1,-1,-1,-1],"loss_changes":[4.811836E1,5.3712597E0,5.2996063E0,0E0,3.9625168E-2,1.600071E0,0E0,0E0,0E0,0E0,0E0],"parents":[2147483647,0,0,1,1,2,2,4,4,5,5],"right_children":[2,4,6,-1,8,10,-1,-1,-1,-1,-1],"split_conditions":[-3.7734315E-1,-5.328328E-1,4.136237E-1,-2.9816953E-2,1.2320279E0,7.0975107E-1,3.3578243E-2,5.4513197E-2,1.55805275E-2,-5.498287E-2,1.2637159E-3],"split_indices":[381,25,335,0,557,495,0,0,0,0,0],"split_type":[0,0,0,0,0,0,0,0,0,0,0],"sum_hessian":[5.171615E1,2.547703E1,2.623912E1,1.4727596E0,2.400427E1,2.4964308E1,1.274812E0,2.2961887E1,1.0423827E0,2.3678402E1,1.2859061E0],"tree_param":{"num_deleted":"0","num_feature":"768","num_nodes":"11","size_leaf_vector":"1"}},{"base_weights":[-2.5949169E-2,-9.4394374E-1,8.814493E-1,2.4000933E-2,-1.0535393E0,-2.3595718E-1,1.0255253E0,3.0184526E-3,-5.522122E-2,3.0671483E-2,-4.1337755E-2,5.3857245E-2,-5.48226E-4],"categories":[],"categories_nodes":[],"categories_segments":[],"categories_sizes":[],"default_left":[0,0,0,0,0,0,0,0,0,0,0,0,0],"id":31,"left_children":[1,3,5,-1,7,9,11,-1,-1,-1,-1,-1,-1],"loss_changes":[4.317018E1,4.5240765E0,4.4403343E0,0E0,1.4395905E0,2.4097283E0,1.2577248E0,0E0,0E0,0E0,0E0,0E0,0E0],"parents":[2147483647,0,0,1,1,2,2,4,4,5,5,6,6],"right_children":[2,4,6,-1,8,10,12,-1,-1,-1,-1,-1,-1],"split_conditions":[-2.667474E-1,-3.2849705E-1,-8.033696E-1,2.4000933E-2,-8.385735E-3,-4.99584E-1,-9.773986E-2,3.0184526E-3,-5.522122E-2,3.0671483E-2,-4.1337755E-2,5.3857245E-2,-5.48226E-4],"split_indices":[640,175,268,0,736,86,447,0,0,0,0,0,0],"split_type":[0,0,0,0,0,0,0,0,0,0,0,0,0],"sum_hessian":[4.9826904E1,2.4748814E1,2.5078093E1,1.5271273E0,2.3221687E1,2.7913747E0,2.2286716E1,1.0063181E0,2.2215368E1,1.1293736E0,1.6620013E0,2.1192078E1,1.0946386E0],"tree_param":{"num_deleted":"0","num_feature":"768","num_nodes":"13","size_leaf_vector":"1"}},{"base_weights":[3.0025272E-2,8.4717774E-1,-9.9550223E-1,1.0215666E0,-3.7020516E-2,4.1408907E-3,-5.373897E-2,3.1680125E-4,5.3708848E-2],"categories":[],"categories_nodes":[],"categories_segments":[],"categories_sizes":[],"default_left":[0,0,0,0,0,0,0,0,0],"id":32,"left_children":[1,3,5,7,-1,-1,-1,-1,-1],"loss_changes":[4.0807037E1,8.253946E0,1.9361706E0,1.3189144E0,0E0,0E0,0E0,0E0,0E0],"parents":[2147483647,0,0,1,1,2,2,3,3],"right_children":[2,4,6,8,-1,-1,-1,-1,-1],"split_conditions":[-1.8889266E-1,1.3374091E0,-3.9247525E-1,-8.238618E-1,-3.7020516E-2,4.1408907E-3,-5.373897E-2,3.1680125E-4,5.3708848E-2],"split_indices":[381,341,16,613,0,0,0,0,0],"split_type":[0,0,0,0,0,0,0,0,0],"sum_hessian":[4.6688637E1,2.6080944E1,2.0607695E1,2.3820866E1,2.2600775E0,1.4082437E0,1.919945E1,1.2288061E0,2.259206E1],"tree_param":{"num_deleted":"0","num_feature":"768","num_nodes":"9","size_leaf_vector":"1"}},{"base_weights":[-1.0045896E-2,7.8141207E-1,-1.0058446E0,1.0060152E0,-4.6919072E-1,-5.318073E-2,1.8629294E-3,5.366626E-2,-6.4437278E-3,-4.5336157E-2,2.889188E-2],"categories":[],"categories_nodes":[],"categories_segments":[],"categories_sizes":[],"default_left":[0,0,0,0,0,0,0,0,0,0,0],"id":33,"left_children":[1,3,5,7,9,-1,-1,-1,-1,-1,-1],"loss_changes":[3.8315117E1,8.082369E0,1.3366642E0,1.9171867E0,2.7260838E0,0E0,0E0,0E0,0E0,0E0,0E0],"parents":[2147483647,0,0,1,1,2,2,3,3,4,4],"right_children":[2,4,6,8,10,-1,-1,-1,-1,-1,-1],"split_conditions":[-1.8889266E-1,1.0437102E0,6.137634E-1,2.3269066E-1,6.6568553E-1,-5.318073E-2,1.8629294E-3,5.366626E-2,-6.4437278E-3,-4.5336157E-2,2.889188E-2],"split_indices":[381,341,380,471,637,0,0,0,0,0,0],"split_type":[0,0,0,0,0,0,0,0,0,0,0],"sum_hessian":[4.6617786E1,2.60938E1,2.0523985E1,2.2286764E1,3.807035E0,1.9428326E1,1.09566E0,2.109016E1,1.1966034E0,2.7795284E0,1.0275066E0],"tree_param":{"num_deleted":"0","num_feature":"768","num_nodes":"11","size_leaf_vector":"1"}},{"base_weights":[3.060583E-2,-8.3859724E-1,9.713269E-1,-1.0073363E0,3.6560714E-1,-6.754268E-3,1.0323021E0,-5.357595E-2,6.3476264E-3,-1.7694224E-2,3.9090984E-2,5.272878E-2,1.5080526E-2],"categories":[],"categories_nodes":[],"categories_segments":[],"categories_sizes":[],"default_left":[0,0,0,0,0,0,0,0,0,0,0,0,0],"id":34,"left_children":[1,3,5,7,9,-1,11,-1,-1,-1,-1,-1,-1],"loss_changes":[3.6561073E1,5.094425E0,1.587101E0,1.6406021E0,1.3524306E0,0E0,1.4801025E-2,0E0,0E0,0E0,0E0,0E0,0E0],"parents":[2147483647,0,0,1,1,2,2,3,3,4,4,6,6],"right_children":[2,4,6,8,10,-1,12,-1,-1,-1,-1,-1,-1],"split_conditions":[-3.0525243E-1,1.0742626E0,-4.4453582E-1,2.1594517E-1,-8.373525E-1,-6.754268E-3,5.7561064E-1,-5.357595E-2,6.3476264E-3,-1.7694224E-2,3.9090984E-2,5.272878E-2,1.5080526E-2],"split_indices":[25,657,124,47,757,0,374,0,0,0,0,0,0],"split_type":[0,0,0,0,0,0,0,0,0,0,0,0,0],"sum_hessian":[4.2717136E1,2.2258963E1,2.0458174E1,1.9666656E1,2.5923052E0,1.0050937E0,1.945308E1,1.8665806E1,1.0008504E0,1.0049078E0,1.5873973E0,1.8447496E1,1.005584E0],"tree_param":{"num_deleted":"0","num_feature":"768","num_nodes":"13","size_leaf_vector":"1"}},{"base_weights":[-4.2656786E-3,-8.0682987E-1,9.636176E-1,-5.227849E-2,3.7022287E-1,-5.5224746E-3,5.242405E-2,-2.9309982E-2,4.478905E-2],"categories":[],"categories_nodes":[],"categories_segments":[],"categories_sizes":[],"default_left":[0,0,0,0,0,0,0,0,0],"id":35,"left_children":[1,3,5,-1,7,-1,-1,-1,-1],"loss_changes":[3.570121E1,7.446869E0,2.0150032E0,0E0,3.0257623E0,0E0,0E0,0E0,0E0],"parents":[2147483647,0,0,1,1,2,2,4,4],"right_children":[2,4,6,-1,8,-1,-1,-1,-1],"split_conditions":[-3.0525243E-1,1.0053135E0,-1.1781112E0,-5.227849E-2,3.1227937E-1,-5.5224746E-3,5.242405E-2,-2.9309982E-2,4.478905E-2],"split_indices":[25,657,714,0,637,0,0,0,0],"split_type":[0,0,0,0,0,0,0,0,0],"sum_hessian":[4.395913E1,2.4122917E1,1.983621E1,2.0148027E1,3.9748893E0,1.4304409E0,1.840577E1,1.3687047E0,2.6061845E0],"tree_param":{"num_deleted":"0","num_feature":"768","num_nodes":"9","size_leaf_vector":"1"}},{"base_weights":[-8.571129E-3,-8.807191E-1,9.218327E-1,3.1286586E-2,-1.0075271E0,5.1925063E-2,-8.203781E-2,-5.2914273E-2,-2.5608435E-3,2.881585E-2,-3.5611607E-2],"categories":[],"categories_nodes":[],"categories_segments":[],"categories_sizes":[],"default_left":[0,0,0,0,0,0,0,0,0,0,0],"id":36,"left_children":[1,3,5,-1,7,-1,9,-1,-1,-1,-1],"loss_changes":[3.4355507E1,4.8041325E0,2.4849377E0,0E0,9.425907E-1,0E0,1.6800903E0,0E0,0E0,0E0,0E0],"parents":[2147483647,0,0,1,1,2,2,4,4,6,6],"right_children":[2,4,6,-1,8,-1,10,-1,-1,-1,-1],"split_conditions":[-3.0525243E-1,-3.225045E-1,1.0437102E0,3.1286586E-2,1.0594127E0,5.1925063E-2,-1.1147317E-1,-5.2914273E-2,-2.5608435E-3,2.881585E-2,-3.5611607E-2],"split_indices":[25,697,341,0,657,0,730,0,0,0,0],"split_type":[0,0,0,0,0,0,0,0,0,0,0],"sum_hessian":[4.0337902E1,2.0848347E1,1.9489557E1,1.3132113E0,1.9535135E1,1.7429434E1,2.0601227E0,1.8449265E1,1.0858709E0,1.0493624E0,1.0107603E0],"tree_param":{"num_deleted":"0","num_feature":"768","num_nodes":"11","size_leaf_vector":"1"}},{"base_weights":[-5.015445E-3,8.075065E-1,-8.830928E-1,1.0066779E0,-3.7863776E-1,1.8955754E-2,-1.0000148E0,8.691099E-3,5.2199937E-2,2.251094E-2,-4.2109616E-2,3.883652E-4,-5.293281E-2],"categories":[],"categories_nodes":[],"categories_segments":[],"categories_sizes":[],"default_left":[0,0,0,0,0,0,0,0,0,0,0,0,0],"id":37,"left_children":[1,3,5,7,9,-1,11,-1,-1,-1,-1,-1,-1],"loss_changes":[2.9692749E1,5.488612E0,3.3306332E0,4.0240097E-1,1.852632E0,0E0,1.1061878E0,0E0,0E0,0E0,0E0,0E0,0E0],"parents":[2147483647,0,0,1,1,2,2,3,3,4,4,6,6],"right_children":[2,4,6,8,10,-1,12,-1,-1,-1,-1,-1,-1],"split_conditions":[-3.4101096E-1,1.0437102E0,-3.9247525E-1,-2.9495436E-1,-6.6498923E-1,1.8955754E-2,-7.7946794E-1,8.691099E-3,5.2199937E-2,2.251094E-2,-4.2109616E-2,3.883652E-4,-5.293281E-2],"split_indices":[381,341,16,240,620,0,362,0,0,0,0,0,0],"split_type":[0,0,0,0,0,0,0,0,0,0,0,0,0],"sum_hessian":[3.961862E1,2.0619188E1,1.8999434E1,1.778425E1,2.8349397E0,1.4206474E0,1.7578785E1,1.0053891E0,1.677886E1,1.0271382E0,1.8078014E0,1.0143434E0,1.6564442E1],"tree_param":{"num_deleted":"0","num_feature":"768","num_nodes":"13","size_leaf_vector":"1"}},{"base_weights":[6.1349594E-3,7.5489414E-1,-9.7709835E-1,9.603797E-1,-3.4065503E-1,5.183102E-3,-5.2569993E-2,-1.3736359E-2,5.217837E-2,2.56227E-2,-4.136368E-2],"categories":[],"categories_nodes":[],"categories_segments":[],"categories_sizes":[],"default_left":[0,0,0,0,0,0,0,0,0,0,0],"id":38,"left_children":[1,3,5,7,9,-1,-1,-1,-1,-1,-1],"loss_changes":[2.9471964E1,5.4421616E0,1.498949E0,2.279396E0,2.2201474E0,0E0,0E0,0E0,0E0,0E0,0E0],"parents":[2147483647,0,0,1,1,2,2,3,3,4,4],"right_children":[2,4,6,8,10,-1,-1,-1,-1,-1,-1],"split_conditions":[-1.8889266E-1,1.0437102E0,-3.9247525E-1,-7.3621464E-1,1.1164961E-1,5.183102E-3,-5.2569993E-2,-1.3736359E-2,5.217837E-2,2.56227E-2,-4.136368E-2],"split_indices":[381,341,16,186,674,0,0,0,0,0,0],"split_type":[0,0,0,0,0,0,0,0,0,0,0],"sum_hessian":[3.803038E1,2.172127E1,1.630911E1,1.8394503E1,3.3267663E0,1.023695E0,1.5285415E1,1.0154451E0,1.7379057E1,1.1890705E0,2.1376958E0],"tree_param":{"num_deleted":"0","num_feature":"768","num_nodes":"11","size_leaf_vector":"1"}},{"base_weights":[1.5250986E-2,8.63755E-1,-8.346509E-1,9.8686254E-1,-2.410098E-2,-9.755903E-1,1.7450841E-1,8.497347E-3,5.1377017E-2,-5.215236E-2,-1.233635E-3,3.2452546E-2,-1.8925883E-2],"categories":[],"categories_nodes":[],"categories_segments":[],"categories_sizes":[],"default_left":[0,0,0,0,0,0,0,0,0,0,0,0,0],"id":39,"left_children":[1,3,5,7,-1,9,11,-1,-1,-1,-1,-1,-1],"loss_changes":[2.619074E1,3.4852142E0,2.7522001E0,3.8932228E-1,0E0,1.0057621E0,1.0521045E0,0E0,0E0,0E0,0E0,0E0,0E0],"parents":[2147483647,0,0,1,1,2,2,3,3,5,5,6,6],"right_children":[2,4,6,8,-1,10,12,-1,-1,-1,-1,-1,-1],"split_conditions":[-3.7734315E-1,1.2067959E0,1.7394664E0,-7.016884E-1,-2.410098E-2,-1.5082063E-1,7.873055E-1,8.497347E-3,5.1377017E-2,-5.215236E-2,-1.233635E-3,3.2452546E-2,-1.8925883E-2],"split_indices":[381,341,359,609,0,82,443,0,0,0,0,0,0],"split_type":[0,0,0,0,0,0,0,0,0,0,0,0,0],"sum_hessian":[3.4318558E1,1.7165245E1,1.7153313E1,1.5970963E1,1.1942822E0,1.5080439E1,2.0728729E0,1.0031407E0,1.4967822E1,1.3991046E1,1.0893928E0,1.0221487E0,1.050724E0],"tree_param":{"num_deleted":"0","num_feature":"768","num_nodes":"13","size_leaf_vector":"1"}},{"base_weights":[-5.1127803E-2,-8.697151E-1,7.802793E-1,-9.8698354E-1,1.8395806E-2,-3.374339E-1,5.0027438E-2,-5.1666345E-2,-5.9173885E-3,2.590159E-2,-4.3878313E-2],"categories":[],"categories_nodes":[],"categories_segments":[],"categories_sizes":[],"default_left":[0,0,0,0,0,0,0,0,0,0,0],"id":40,"left_children":[1,3,5,7,-1,9,-1,-1,-1,-1,-1],"loss_changes":[2.5331049E1,3.0807781E0,4.8917255E0,5.7718277E-1,0E0,2.207242E0,0E0,0E0,0E0,0E0,0E0],"parents":[2147483647,0,0,1,1,2,2,3,3,5,5],"right_children":[2,4,6,8,-1,10,-1,-1,-1,-1,-1],"split_conditions":[-3.5942078E-1,1.1344283E0,-8.01312E-1,1.8828481E-1,1.8395806E-2,9.695684E-1,5.0027438E-2,-5.1666345E-2,-5.9173885E-3,2.590159E-2,-4.3878313E-2],"split_indices":[25,657,268,47,0,341,0,0,0,0,0],"split_type":[0,0,0,0,0,0,0,0,0,0,0],"sum_hessian":[3.5222713E1,1.7724974E1,1.749774E1,1.6375845E1,1.3491277E0,2.7930505E0,1.470469E1,1.5366421E1,1.0094247E0,1.0968184E0,1.696232E0],"tree_param":{"num_deleted":"0","num_feature":"768","num_nodes":"11","size_leaf_vector":"1"}},{"base_weights":[3.955123E-2,-7.83113E-1,9.754676E-1,-9.158836E-1,2.640961E-2,1.1185308E-2,5.0525766E-2,-5.0709903E-2,4.320835E-3],"categories":[],"categories_nodes":[],"categories_segments":[],"categories_sizes":[],"default_left":[0,0,0,0,0,0,0,0,0],"id":41,"left_children":[1,3,5,7,-1,-1,-1,-1,-1],"loss_changes":[2.7201082E1,3.7618656E0,2.0888329E-1,1.8084764E0,0E0,0E0,0E0,0E0,0E0],"parents":[2147483647,0,0,1,1,2,2,3,3],"right_children":[2,4,6,8,-1,-1,-1,-1,-1],"split_conditions":[-3.204995E-1,1.7589353E-1,-4.6393993E-1,2.594516E-1,2.640961E-2,1.1185308E-2,5.0525766E-2,-5.0709903E-2,4.320835E-3],"split_indices":[25,640,627,75,0,0,0,0,0],"split_type":[0,0,0,0,0,0,0,0,0],"sum_hessian":[3.3336456E1,1.7828548E1,1.5507908E1,1.6463186E1,1.3653618E0,1.0196502E0,1.4488257E1,1.4981771E1,1.4814142E0],"tree_param":{"num_deleted":"0","num_feature":"768","num_nodes":"9","size_leaf_vector":"1"}},{"base_weights":[3.5790566E-2,-8.8008153E-1,8.0881363E-1,1.7553564E-2,-5.0732017E-2,-2.1762177E-1,5.0621767E-2,2.640804E-2,-4.24547E-2],"categories":[],"categories_nodes":[],"categories_segments":[],"categories_sizes":[],"default_left":[0,0,0,0,0,0,0,0,0],"id":42,"left_children":[1,3,5,-1,-1,7,-1,-1,-1],"loss_changes":[2.433153E1,2.9651995E0,4.110488E0,0E0,0E0,2.287112E0,0E0,0E0,0E0],"parents":[2147483647,0,0,1,1,2,2,5,5],"right_children":[2,4,6,-1,-1,8,-1,-1,-1],"split_conditions":[-3.6433956E-1,-4.6220088E-1,-7.219175E-1,1.7553564E-2,-5.0732017E-2,-2.3890367E-1,5.0621767E-2,2.640804E-2,-4.24547E-2],"split_indices":[25,381,268,0,0,701,0,0,0],"split_type":[0,0,0,0,0,0,0,0,0],"sum_hessian":[3.236163E1,1.474883E1,1.76128E1,1.2946157E0,1.3454214E1,2.9042134E0,1.4708587E1,1.4065963E0,1.4976171E0],"tree_param":{"num_deleted":"0","num_feature":"768","num_nodes":"9","size_leaf_vector":"1"}},{"base_weights":[-1.4975937E-2,7.683754E-1,-8.550839E-1,9.6882564E-1,-2.9228675E-1,-9.7594714E-1,1.1458497E-2,1.1226846E-2,5.032305E-2,-3.816919E-2,1.9174976E-2,-1.0406206E-2,-5.0837833E-2],"categories":[],"categories_nodes":[],"categories_segments":[],"categories_sizes":[],"default_left":[0,0,0,0,0,0,0,0,0,0,0,0,0],"id":43,"left_children":[1,3,5,7,9,11,-1,-1,-1,-1,-1,-1,-1],"loss_changes":[2.2036003E1,3.969307E0,2.3398457E0,1.8896389E-1,1.4146554E0,2.4960041E-1,0E0,0E0,0E0,0E0,0E0,0E0,0E0],"parents":[2147483647,0,0,1,1,2,2,3,3,4,4,5,5],"right_children":[2,4,6,8,10,12,-1,-1,-1,-1,-1,-1,-1],"split_conditions":[-3.2631242E-1,1.0437102E0,3.39238E-1,-2.9495436E-1,-5.38823E-1,-9.745391E-1,1.1458497E-2,1.1226846E-2,5.032305E-2,-3.816919E-2,1.9174976E-2,-1.0406206E-2,-5.0837833E-2],"split_indices":[381,341,370,240,169,558,0,0,0,0,0,0,0],"split_type":[0,0,0,0,0,0,0,0,0,0,0,0,0],"sum_hessian":[3.1485924E1,1.6337526E1,1.5148398E1,1.3813544E1,2.5239818E0,1.3719012E1,1.429386E0,1.0001621E0,1.2813382E1,1.4108452E0,1.1131366E0,1.0002061E0,1.2718806E1],"tree_param":{"num_deleted":"0","num_feature":"768","num_nodes":"13","size_leaf_vector":"1"}},{"base_weights":[-1.0618799E-3,-7.2753227E-1,9.085554E-1,-9.3667346E-1,2.9598296E-2,4.9019184E-2,9.895641E-4,-5.1074274E-2,5.5118445E-3],"categories":[],"categories_nodes":[],"categories_segments":[],"categories_sizes":[],"default_left":[0,0,0,0,0,0,0,0,0],"id":44,"left_children":[1,3,5,7,-1,-1,-1,-1,-1],"loss_changes":[1.9880087E1,5.170005E0,8.334055E-1,1.4288568E0,0E0,0E0,0E0,0E0,0E0],"parents":[2147483647,0,0,1,1,2,2,3,3],"right_children":[2,4,6,8,-1,-1,-1,-1,-1],"split_conditions":[-2.6581088E-1,6.779935E-2,1.0397996E0,1.1899776E0,2.9598296E-2,4.9019184E-2,9.895641E-4,-5.1074274E-2,5.5118445E-3],"split_indices":[25,640,400,657,0,0,0,0,0],"split_type":[0,0,0,0,0,0,0,0,0],"sum_hessian":[2.8084131E1,1.5725255E1,1.2358876E1,1.3824235E1,1.9010203E0,1.1339364E1,1.0195125E0,1.2810704E1,1.0135307E0],"tree_param":{"num_deleted":"0","num_feature":"768","num_nodes":"9","size_leaf_vector":"1"}},{"base_weights":[1.3583055E-2,-8.3463395E-1,7.508688E-1,1.827255E-2,-4.870354E-2,-2.3792133E-2,9.2202085E-1,-2.868977E-3,4.997685E-2],"categories":[],"categories_nodes":[],"categories_segments":[],"categories_sizes":[],"default_left":[0,0,0,0,0,0,0,0,0],"id":45,"left_children":[1,3,5,-1,-1,-1,7,-1,-1],"loss_changes":[1.9207659E1,2.7472E0,3.8865185E0,0E0,0E0,0E0,1.1772671E0,0E0,0E0],"parents":[2147483647,0,0,1,1,2,2,6,6],"right_children":[2,4,6,-1,-1,-1,8,-1,-1],"split_conditions":[-2.9164368E-1,-1.1020713E0,-3.64949E-1,1.827255E-2,-4.870354E-2,-2.3792133E-2,-4.0418804E-1,-2.868977E-3,4.997685E-2],"split_indices":[640,118,274,0,0,0,244,0,0],"split_type":[0,0,0,0,0,0,0,0,0],"sum_hessian":[2.871155E1,1.328996E1,1.542159E1,1.214684E0,1.2075276E1,1.6702248E0,1.3751365E1,1.0276017E0,1.2723763E1],"tree_param":{"num_deleted":"0","num_feature":"768","num_nodes":"9","size_leaf_vector":"1"}},{"base_weights":[2.4021076E-2,-6.713613E-1,9.36462E-1,3.6925095E-1,-9.234566E-1,1.173999E-2,4.87293E-2,4.09822E-2,-2.2829583E-2,-5.034117E-2,-1.4686774E-3],"categories":[],"categories_nodes":[],"categories_segments":[],"categories_sizes":[],"default_left":[0,0,0,0,0,0,0,0,0,0,0],"id":46,"left_children":[1,3,5,7,9,-1,-1,-1,-1,-1,-1],"loss_changes":[1.9454084E1,4.9108634E0,1.2560081E-1,1.9035349E0,1.0369434E0,0E0,0E0,0E0,0E0,0E0,0E0],"parents":[2147483647,0,0,1,1,2,2,3,3,4,4],"right_children":[2,4,6,8,10,-1,-1,-1,-1,-1,-1],"split_conditions":[-2.6581088E-1,-2.1777505E-1,1.7081566E-1,7.011429E-1,6.9694775E-1,1.173999E-2,4.87293E-2,4.09822E-2,-2.2829583E-2,-5.034117E-2,-1.4686774E-3],"split_indices":[25,16,20,736,637,0,0,0,0,0,0],"split_type":[0,0,0,0,0,0,0,0,0,0,0],"sum_hessian":[2.866985E1,1.6420103E1,1.2249747E1,3.1115115E0,1.3308591E1,1.000199E0,1.1249548E1,2.0182927E0,1.0932188E0,1.2058158E1,1.2504326E0],"tree_param":{"num_deleted":"0","num_feature":"768","num_nodes":"11","size_leaf_vector":"1"}},{"base_weights":[1.5790788E-2,-8.479716E-1,7.657248E-1,1.3090213E-2,-4.891664E-2,-2.061126E-1,9.601348E-1,-3.192661E-2,1.8669864E-2,1.4447528E-2,5.0012548E-2],"categories":[],"categories_nodes":[],"categories_segments":[],"categories_sizes":[],"default_left":[0,0,0,0,0,0,0,0,0,0,0],"id":47,"left_children":[1,3,5,-1,-1,7,9,-1,-1,-1,-1],"loss_changes":[1.9454926E1,2.2766695E0,3.2331686E0,0E0,0E0,1.1158187E0,7.618904E-2,0E0,0E0,0E0,0E0],"parents":[2147483647,0,0,1,1,2,2,5,5,6,6],"right_children":[2,4,6,-1,-1,8,10,-1,-1,-1,-1],"split_conditions":[-2.9984966E-1,-4.7972578E-1,-9.715663E-2,1.3090213E-2,-4.891664E-2,4.7264633E-1,-6.938087E-1,-3.192661E-2,1.8669864E-2,1.4447528E-2,5.0012548E-2],"split_indices":[640,374,638,0,0,565,411,0,0,0,0],"split_type":[0,0,0,0,0,0,0,0,0,0,0],"sum_hessian":[2.8031542E1,1.296636E1,1.5065182E1,1.2570122E0,1.1709349E1,2.501287E0,1.2563895E1,1.3741059E0,1.127181E0,1.1712089E0,1.1392686E1],"tree_param":{"num_deleted":"0","num_feature":"768","num_nodes":"11","size_leaf_vector":"1"}},{"base_weights":[6.908863E-3,-7.3912174E-1,7.735718E-1,2.4161523E-2,-9.2253244E-1,-1.2648331E-2,4.7783174E-2,-5.0079722E-2,1.4026744E-5],"categories":[],"categories_nodes":[],"categories_segments":[],"categories_sizes":[],"default_left":[0,0,0,0,0,0,0,0,0],"id":48,"left_children":[1,3,5,-1,7,-1,-1,-1,-1],"loss_changes":[1.622003E1,3.6691523E0,2.8552647E0,0E0,9.374838E-1,0E0,0E0,0E0,0E0],"parents":[2147483647,0,0,1,1,2,2,4,4],"right_children":[2,4,6,-1,8,-1,-1,-1,-1],"split_conditions":[-5.270643E-1,5.4664874E-1,-6.297131E-1,2.4161523E-2,8.337077E-1,-1.2648331E-2,4.7783174E-2,-5.0079722E-2,1.4026744E-5],"split_indices":[268,341,25,0,267,0,0,0,0],"split_type":[0,0,0,0,0,0,0,0,0],"sum_hessian":[2.635931E1,1.3377625E1,1.2981686E1,1.532108E0,1.1845518E1,1.8971738E0,1.1084512E1,1.0832106E1,1.0134118E0],"tree_param":{"num_deleted":"0","num_feature":"768","num_nodes":"9","size_leaf_vector":"1"}},{"base_weights":[1.4558395E-2,6.932239E-1,-8.577879E-1,-4.6061128E-1,9.311262E-1,8.248104E-3,-4.8268776E-2,4.233469E-3,-3.6554422E-2,4.8976317E-2,8.614727E-3],"categories":[],"categories_nodes":[],"categories_segments":[],"categories_sizes":[],"default_left":[0,0,0,0,0,0,0,0,0,0,0],"id":49,"left_children":[1,3,5,7,9,-1,-1,-1,-1,-1,-1],"loss_changes":[1.6458035E1,4.71753E0,1.4985332E0,5.544595E-1,3.1911373E-1,0E0,0E0,0E0,0E0,0E0,0E0],"parents":[2147483647,0,0,1,1,2,2,3,3,4,4],"right_children":[2,4,6,8,10,-1,-1,-1,-1,-1,-1],"split_conditions":[-1.8889266E-1,-7.137074E-1,-3.4283814E-1,4.1507035E-1,1.0312452E0,8.248104E-3,-4.8268776E-2,4.233469E-3,-3.6554422E-2,4.8976317E-2,8.614727E-3],"split_indices":[381,656,16,196,341,0,0,0,0,0,0],"split_type":[0,0,0,0,0,0,0,0,0,0,0],"sum_hessian":[2.5794857E1,1.4623467E1,1.117139E1,2.3397E0,1.2283768E1,1.012555E0,1.0158834E1,1.0035368E0,1.336163E0,1.1273859E1,1.009909E0],"tree_param":{"num_deleted":"0","num_feature":"768","num_nodes":"11","size_leaf_vector":"1"}},{"base_weights":[-6.83508E-3,6.888979E-1,-8.646902E-1,9.085717E-1,-3.165273E-1,-4.891392E-2,5.4274993E-3,5.1816525E-3,4.859193E-2,-3.4076907E-2,1.3281968E-2],"categories":[],"categories_nodes":[],"categories_segments":[],"categories_sizes":[],"default_left":[0,0,0,0,0,0,0,0,0,0,0],"id":50,"left_children":[1,3,5,7,9,-1,-1,-1,-1,-1,-1],"loss_changes":[1.5708813E1,3.4987063E0,1.4088087E0,5.200825E-1,8.9261055E-1,0E0,0E0,0E0,0E0,0E0,0E0],"parents":[2147483647,0,0,1,1,2,2,3,3,4,4],"right_children":[2,4,6,8,10,-1,-1,-1,-1,-1,-1],"split_conditions":[-1.8889266E-1,1.0437102E0,1.7394664E0,-6.8198746E-1,-5.38823E-1,-4.891392E-2,5.4274993E-3,5.1816525E-3,4.859193E-2,-3.4076907E-2,1.3281968E-2],"split_indices":[381,341,359,335,169,0,0,0,0,0,0],"split_type":[0,0,0,0,0,0,0,0,0,0,0],"sum_hessian":[2.4321995E1,1.3538791E1,1.0783204E1,1.1190193E1,2.348597E0,9.651578E0,1.1316253E0,1.0076741E0,1.0182519E1,1.3386124E0,1.0099847E0],"tree_param":{"num_deleted":"0","num_feature":"768","num_nodes":"11","size_leaf_vector":"1"}},{"base_weights":[3.933953E-3,-7.012143E-1,7.5341487E-1,2.6291454E-2,-8.9369094E-1,-1.5819598E-2,4.8500385E-2,-2.0985256E-3,-4.9546808E-2],"categories":[],"categories_nodes":[],"categories_segments":[],"categories_sizes":[],"default_left":[0,0,0,0,0,0,0,0,0],"id":51,"left_children":[1,3,5,-1,7,-1,-1,-1,-1],"loss_changes":[1.3967767E1,3.6867304E0,3.2749982E0,0E0,9.642372E-1,0E0,0E0,0E0,0E0],"parents":[2147483647,0,0,1,1,2,2,4,4],"right_children":[2,4,6,-1,8,-1,-1,-1,-1],"split_conditions":[-5.270643E-1,5.4664874E-1,-5.5889197E-2,2.6291454E-2,-9.407895E-1,-1.5819598E-2,4.8500385E-2,-2.0985256E-3,-4.9546808E-2],"split_indices":[268,341,638,0,98,0,0,0,0],"split_type":[0,0,0,0,0,0,0,0,0],"sum_hessian":[2.4429676E1,1.262029E1,1.1809385E1,1.4763855E0,1.1143905E1,1.9107823E0,9.898603E0,1.2886732E0,9.855231E0],"tree_param":{"num_deleted":"0","num_feature":"768","num_nodes":"9","size_leaf_vector":"1"}},{"base_weights":[-4.2832844E-2,6.2385505E-1,-9.197898E-1,8.7988853E-1,-4.5206118E-1,-1.1964047E-2,-4.8264496E-2,-1.7344792E-4,4.8153345E-2,-3.5859823E-2,4.4206507E-3],"categories":[],"categories_nodes":[],"categories_segments":[],"categories_sizes":[],"default_left":[0,0,0,0,0,0,0,0,0,0,0],"id":52,"left_children":[1,3,5,7,9,-1,-1,-1,-1,-1,-1],"loss_changes":[1.4525426E1,4.2963796E0,1.0065079E-1,8.682661E-1,5.479133E-1,0E0,0E0,0E0,0E0,0E0,0E0],"parents":[2147483647,0,0,1,1,2,2,3,3,4,4],"right_children":[2,4,6,8,10,-1,-1,-1,-1,-1,-1],"split_conditions":[-1.8889266E-1,1.0437102E0,5.6668997E-1,-6.2263894E-1,1.6386089E-1,-1.1964047E-2,-4.8264496E-2,-1.7344792E-4,4.8153345E-2,-3.5859823E-2,4.4206507E-3],"split_indices":[381,341,187,186,741,0,0,0,0,0,0],"split_type":[0,0,0,0,0,0,0,0,0,0,0],"sum_hessian":[2.2862915E1,1.3152569E1,9.710346E0,1.0771495E1,2.3810737E0,1.000818E0,8.709529E0,1.0094452E0,9.76205E0,1.3780705E0,1.0030031E0],"tree_param":{"num_deleted":"0","num_feature":"768","num_nodes":"11","size_leaf_vector":"1"}},{"base_weights":[-2.574105E-2,6.5470475E-1,-8.5928756E-1,8.754266E-1,-3.516596E-1,2.6643001E-3,-4.804126E-2,2.4450426E-3,4.763831E-2,7.1117445E-3,-3.2920994E-2],"categories":[],"categories_nodes":[],"categories_segments":[],"categories_sizes":[],"default_left":[0,0,0,0,0,0,0,0,0,0,0],"id":53,"left_children":[1,3,5,7,9,-1,-1,-1,-1,-1,-1],"loss_changes":[1.3549785E1,3.2341866E0,1.0448489E0,6.6238403E-1,5.607652E-1,0E0,0E0,0E0,0E0,0E0,0E0],"parents":[2147483647,0,0,1,1,2,2,3,3,4,4],"right_children":[2,4,6,8,10,-1,-1,-1,-1,-1,-1],"split_conditions":[-2.5961706E-1,1.0437102E0,4.9644995E-1,-6.072458E-1,-2.1283689E-1,2.6643001E-3,-4.804126E-2,2.4450426E-3,4.763831E-2,7.1117445E-3,-3.2920994E-2],"split_indices":[381,341,270,186,294,0,0,0,0,0,0],"split_type":[0,0,0,0,0,0,0,0,0,0,0],"sum_hessian":[2.1897722E1,1.2174178E1,9.723544E0,1.0091057E1,2.083121E0,1.0211477E0,8.702396E0,1.0031118E0,9.087945E0,1.0036087E0,1.0795122E0],"tree_param":{"num_deleted":"0","num_feature":"768","num_nodes":"11","size_leaf_vector":"1"}},{"base_weights":[-1.9604703E-3,6.3616264E-1,-8.3120376E-1,-3.5576499E-1,8.555996E-1,-4.7075115E-2,9.2346687E-4,-3.0608568E-2,4.241259E-3,3.3400373E-3,4.7303483E-2],"categories":[],"categories_nodes":[],"categories_segments":[],"categories_sizes":[],"default_left":[0,0,0,0,0,0,0,0,0,0,0],"id":54,"left_children":[1,3,5,7,9,-1,-1,-1,-1,-1,-1],"loss_changes":[1.2537996E1,3.2193437E0,9.8296404E-1,4.0577602E-1,7.4032116E-1,0E0,0E0,0E0,0E0,0E0,0E0],"parents":[2147483647,0,0,1,1,2,2,3,3,4,4],"right_children":[2,4,6,8,10,-1,-1,-1,-1,-1,-1],"split_conditions":[-1.8889266E-1,-7.137074E-1,1.0202814E0,-7.029286E-1,-4.4968683E-1,-4.7075115E-2,9.2346687E-4,-3.0608568E-2,4.241259E-3,3.3400373E-3,4.7303483E-2],"split_indices":[381,656,657,106,25,0,0,0,0,0,0],"split_type":[0,0,0,0,0,0,0,0,0,0,0],"sum_hessian":[2.1694897E1,1.239188E1,9.303017E0,2.1322308E0,1.0259649E1,8.138463E0,1.1645534E0,1.1016679E0,1.0305629E0,1.2345052E0,9.025144E0],"tree_param":{"num_deleted":"0","num_feature":"768","num_nodes":"11","size_leaf_vector":"1"}},{"base_weights":[-3.4731276E-2,6.114788E-1,-8.720654E-1,-2.5559083E-2,8.557776E-1,-5.808932E-3,-4.7305327E-2,1.4855306E-3,4.727845E-2],"categories":[],"categories_nodes":[],"categories_segments":[],"categories_sizes":[],"default_left":[0,0,0,0,0,0,0,0,0],"id":55,"left_children":[1,3,5,-1,7,-1,-1,-1,-1],"loss_changes":[1.2188738E1,3.9331427E0,4.3827438E-1,0E0,7.760782E-1,0E0,0E0,0E0,0E0],"parents":[2147483647,0,0,1,1,2,2,4,4],"right_children":[2,4,6,-1,8,-1,-1,-1,-1],"split_conditions":[-1.8889266E-1,-7.326406E-1,-3.3618954E-1,-2.5559083E-2,-6.8762594E-1,-5.808932E-3,-4.7305327E-2,1.4855306E-3,4.727845E-2],"split_indices":[381,656,730,0,84,0,0,0,0],"split_type":[0,0,0,0,0,0,0,0,0],"sum_hessian":[2.054061E1,1.1745663E1,8.794948E0,1.9039111E0,9.841751E0,1.0138324E0,7.781115E0,1.0953722E0,8.746379E0],"tree_param":{"num_deleted":"0","num_feature":"768","num_nodes":"9","size_leaf_vector":"1"}},{"base_weights":[-3.5536118E-2,-8.099368E-1,6.2283957E-1,-4.6171013E-2,3.9736424E-3,-1.4379501E-2,8.0097085E-1,-7.955404E-3,4.6797957E-2],"categories":[],"categories_nodes":[],"categories_segments":[],"categories_sizes":[],"default_left":[0,0,0,0,0,0,0,0,0],"id":56,"left_children":[1,3,5,-1,-1,-1,7,-1,-1],"loss_changes":[1.0769695E1,1.0510745E0,2.0868597E0,0E0,0E0,0E0,1.4239731E0,0E0,0E0],"parents":[2147483647,0,0,1,1,2,2,6,6],"right_children":[2,4,6,-1,-1,-1,8,-1,-1],"split_conditions":[-2.667474E-1,4.2608783E-1,-8.4278256E-2,-4.6171013E-2,3.9736424E-3,-1.4379501E-2,1.7411815E-1,-7.955404E-3,4.6797957E-2],"split_indices":[640,256,638,0,0,0,637,0,0],"split_type":[0,0,0,0,0,0,0,0,0],"sum_hessian":[1.913397E1,8.686478E0,1.0447493E1,7.669637E0,1.0168401E0,1.6090659E0,8.838427E0,1.0674815E0,7.770945E0],"tree_param":{"num_deleted":"0","num_feature":"768","num_nodes":"9","size_leaf_vector":"1"}},{"base_weights":[1.1627274E-2,-6.5705246E-1,8.6816794E-1,1.8450461E-2,-8.6658776E-1,1.2388772E-2,4.5715064E-2,-7.720844E-3,-4.6921954E-2],"categories":[],"categories_nodes":[],"categories_segments":[],"categories_sizes":[],"default_left":[0,0,0,0,0,0,0,0,0],"id":57,"left_children":[1,3,5,-1,7,-1,-1,-1,-1],"loss_changes":[1.1904149E1,2.8313556E0,3.4086227E-2,0E0,3.6677027E-1,0E0,0E0,0E0,0E0],"parents":[2147483647,0,0,1,1,2,2,4,4],"right_children":[2,4,6,-1,8,-1,-1,-1,-1],"split_conditions":[-2.6581088E-1,-2.774917E-1,-6.5053153E-1,1.8450461E-2,-4.4561613E-1,1.2388772E-2,4.5715064E-2,-7.720844E-3,-4.6921954E-2],"split_indices":[25,16,654,0,374,0,0,0,0],"split_type":[0,0,0,0,0,0,0,0,0],"sum_hessian":[1.8788197E1,1.0681959E1,8.106236E0,1.682404E0,8.999555E0,1.0020266E0,7.1042104E0,1.1133587E0,7.886196E0],"tree_param":{"num_deleted":"0","num_feature":"768","num_nodes":"9","size_leaf_vector":"1"}},{"base_weights":[4.5493457E-2,-6.425633E-1,4.4422176E-2,1.6853543E-2,-8.5699475E-1,-7.827197E-3,-4.6185445E-2],"categories":[],"categories_nodes":[],"categories_segments":[],"categories_sizes":[],"default_left":[0,0,0,0,0,0,0],"id":58,"left_children":[1,3,-1,-1,5,-1,-1],"loss_changes":[1.1362743E1,2.5627937E0,0E0,0E0,2.8359747E-1,0E0,0E0],"parents":[2147483647,0,0,1,1,4,4],"right_children":[2,4,-1,-1,6,-1,-1],"split_conditions":[-3.204995E-1,-2.1777505E-1,4.4422176E-2,1.6853543E-2,-1.996585E-1,-7.827197E-3,-4.6185445E-2],"split_indices":[25,16,0,0,52,0,0],"split_type":[0,0,0,0,0,0,0],"sum_hessian":[1.760674E1,9.824901E0,7.781841E0,1.6616576E0,8.163243E0,1.0009087E0,7.1623344E0],"tree_param":{"num_deleted":"0","num_feature":"768","num_nodes":"7","size_leaf_vector":"1"}},{"base_weights":[-1.182061E-2,-7.650095E-1,6.944021E-1,-4.6466593E-2,1.1425489E-2,4.596306E-2,-1.3174622E-2],"categories":[],"categories_nodes":[],"categories_segments":[],"categories_sizes":[],"default_left":[0,0,0,0,0,0,0],"id":59,"left_children":[1,3,5,-1,-1,-1,-1],"loss_changes":[1.0775538E1,1.8115482E0,2.4960017E0,0E0,0E0,0E0,0E0],"parents":[2147483647,0,0,1,1,2,2],"right_children":[2,4,6,-1,-1,-1,-1],"split_conditions":[-3.5942078E-1,1.1046894E0,1.0312452E0,-4.6466593E-2,1.1425489E-2,4.596306E-2,-1.3174622E-2],"split_indices":[25,657,341,0,0,0,0],"split_type":[0,0,0,0,0,0,0],"sum_hessian":[1.8259157E1,8.795493E0,9.463665E0,7.602663E0,1.1928301E0,7.697145E0,1.7665199E0],"tree_param":{"num_deleted":"0","num_feature":"768","num_nodes":"7","size_leaf_vector":"1"}},{"base_weights":[3.788357E-2,-6.783745E-1,6.8099767E-1,2.0009479E-2,-8.6585605E-1,-1.2674156E-2,4.447052E-2,-1.0685324E-2,-4.6821278E-2],"categories":[],"categories_nodes":[],"categories_segments":[],"categories_sizes":[],"default_left":[0,0,0,0,0,0,0,0,0],"id":60,"left_children":[1,3,5,-1,7,-1,-1,-1,-1],"loss_changes":[8.997453E0,2.2204633E0,2.2241411E0,0E0,1.7776966E-1,0E0,0E0,0E0,0E0],"parents":[2147483647,0,0,1,1,2,2,4,4],"right_children":[2,4,6,-1,8,-1,-1,-1,-1],"split_conditions":[-6.2080806E-1,5.4664874E-1,-8.4278256E-2,2.0009479E-2,-6.413651E-1,-1.2674156E-2,4.447052E-2,-1.0685324E-2,-4.6821278E-2],"split_indices":[268,341,638,0,450,0,0,0,0],"split_type":[0,0,0,0,0,0,0,0,0],"sum_hessian":[1.7529787E1,8.267341E0,9.262446E0,1.0562536E0,7.2110868E0,1.6496212E0,7.612826E0,1.0974649E0,6.1136217E0],"tree_param":{"num_deleted":"0","num_feature":"768","num_nodes":"9","size_leaf_vector":"1"}},{"base_weights":[2.6402257E-2,-5.3978837E-1,8.034035E-1,4.0942353E-1,-7.98135E-1,4.350479E-3,4.461277E-2,-6.014506E-4,3.0953309E-2,8.933016E-4,-4.556191E-2],"categories":[],"categories_nodes":[],"categories_segments":[],"categories_sizes":[],"default_left":[0,0,0,0,0,0,0,0,0,0,0],"id":61,"left_children":[1,3,5,7,9,-1,-1,-1,-1,-1,-1],"loss_changes":[8.552453E0,3.091371E0,4.4311047E-1,2.7894706E-1,8.6544657E-1,0E0,0E0,0E0,0E0,0E0,0E0],"parents":[2147483647,0,0,1,1,2,2,3,3,4,4],"right_children":[2,4,6,8,10,-1,-1,-1,-1,-1,-1],"split_conditions":[-2.6581088E-1,-2.2870907E-1,-6.28889E-1,-7.187215E-1,2.71215E-1,4.350479E-3,4.461277E-2,-6.014506E-4,3.0953309E-2,8.933016E-4,-4.556191E-2],"split_indices":[25,16,669,182,258,0,0,0,0,0,0],"split_type":[0,0,0,0,0,0,0,0,0,0,0],"sum_hessian":[1.7454687E1,1.0273683E1,7.181005E0,2.0728552E0,8.200828E0,1.0107559E0,6.170249E0,1.0017071E0,1.0711483E0,1.1008208E0,7.1000066E0],"tree_param":{"num_deleted":"0","num_feature":"768","num_nodes":"11","size_leaf_vector":"1"}},{"base_weights":[-1.4988692E-3,-6.7178667E-1,6.784226E-1,-4.468379E-2,1.227055E-2,4.4636466E-2,-1.0976293E-2],"categories":[],"categories_nodes":[],"categories_segments":[],"categories_sizes":[],"default_left":[0,0,0,0,0,0,0],"id":62,"left_children":[1,3,5,-1,-1,-1,-1],"loss_changes":[8.337707E0,2.0940113E0,1.9439168E0,0E0,0E0,0E0,0E0],"parents":[2147483647,0,0,1,1,2,2],"right_children":[2,4,6,-1,-1,-1,-1],"split_conditions":[-3.6433956E-1,7.168894E-1,1.0312452E0,-4.468379E-2,1.227055E-2,4.4636466E-2,-1.0976293E-2],"split_indices":[25,671,341,0,0,0,0],"split_type":[0,0,0,0,0,0,0],"sum_hessian":[1.629473E1,8.21152E0,8.083209E0,6.6326017E0,1.5789182E0,6.5304475E0,1.5527613E0],"tree_param":{"num_deleted":"0","num_feature":"768","num_nodes":"7","size_leaf_vector":"1"}},{"base_weights":[-9.035439E-3,-6.545106E-1,7.21413E-1,2.1668632E-2,-8.551624E-1,-1.527119E-2,4.566626E-2,-7.81324E-3,-4.6530124E-2],"categories":[],"categories_nodes":[],"categories_segments":[],"categories_sizes":[],"default_left":[0,0,0,0,0,0,0,0,0],"id":63,"left_children":[1,3,5,-1,7,-1,-1,-1,-1],"loss_changes":[8.393932E0,2.432085E0,1.9259424E0,0E0,2.92706E-1,0E0,0E0,0E0,0E0],"parents":[2147483647,0,0,1,1,2,2,4,4],"right_children":[2,4,6,-1,8,-1,-1,-1,-1],"split_conditions":[-5.270643E-1,5.4664874E-1,-9.715663E-2,2.1668632E-2,-5.1309544E-1,-1.527119E-2,4.566626E-2,-7.81324E-3,-4.6530124E-2],"split_indices":[268,341,638,0,163,0,0,0,0],"split_type":[0,0,0,0,0,0,0,0,0],"sum_hessian":[1.5801673E1,8.443961E0,7.3577123E0,1.1342915E0,7.3096695E0,1.0654553E0,6.2922573E0,1.0113765E0,6.2982926E0],"tree_param":{"num_deleted":"0","num_feature":"768","num_nodes":"9","size_leaf_vector":"1"}},{"base_weights":[-4.080495E-2,-6.229976E-1,7.8009135E-1,1.6912801E-2,-8.1526697E-1,5.5495813E-3,4.345515E-2,-4.3845554E-3,-4.5081858E-2],"categories":[],"categories_nodes":[],"categories_segments":[],"categories_sizes":[],"default_left":[0,0,0,0,0,0,0,0,0],"id":64,"left_children":[1,3,5,-1,7,-1,-1,-1,-1],"loss_changes":[8.3563595E0,2.159226E0,3.369484E-1,0E0,4.730177E-1,0E0,0E0,0E0,0E0],"parents":[2147483647,0,0,1,1,2,2,4,4],"right_children":[2,4,6,-1,8,-1,-1,-1,-1],"split_conditions":[-2.6581088E-1,6.634534E-1,-1.9174698E-1,1.6912801E-2,-9.5368695E-1,5.5495813E-3,4.345515E-2,-4.3845554E-3,-4.5081858E-2],"split_indices":[25,383,167,0,628,0,0,0,0],"split_type":[0,0,0,0,0,0,0,0,0],"sum_hessian":[1.546796E1,9.190785E0,6.2771745E0,1.4053642E0,7.785422E0,1.0008353E0,5.276339E0,1.039982E0,6.7454395E0],"tree_param":{"num_deleted":"0","num_feature":"768","num_nodes":"9","size_leaf_vector":"1"}},{"base_weights":[-3.6673773E-2,6.25023E-1,-7.2785115E-1,4.3667924E-2,-1.5144261E-2,5.381228E-3,-4.475527E-2],"categories":[],"categories_nodes":[],"categories_segments":[],"categories_sizes":[],"default_left":[0,0,0,0,0,0,0],"id":65,"left_children":[1,3,5,-1,-1,-1,-1],"loss_changes":[7.7808456E0,2.2742748E0,1.2556715E0,0E0,0E0,0E0,0E0],"parents":[2147483647,0,0,1,1,2,2],"right_children":[2,4,6,-1,-1,-1,-1],"split_conditions":[-3.4101096E-1,1.0437102E0,3.633785E-1,4.3667924E-2,-1.5144261E-2,5.381228E-3,-4.475527E-2],"split_indices":[381,341,736,0,0,0,0],"split_type":[0,0,0,0,0,0,0],"sum_hessian":[1.5018201E1,7.721631E0,7.29657E0,6.137771E0,1.5838598E0,1.2765268E0,6.020043E0],"tree_param":{"num_deleted":"0","num_feature":"768","num_nodes":"7","size_leaf_vector":"1"}},{"base_weights":[2.506157E-2,-6.466827E-1,7.203475E-1,-4.3547194E-2,1.4923227E-2,4.406541E-2,-8.432428E-3],"categories":[],"categories_nodes":[],"categories_segments":[],"categories_sizes":[],"default_left":[0,0,0,0,0,0,0],"id":66,"left_children":[1,3,5,-1,-1,-1,-1],"loss_changes":[7.696317E0,2.0405695E0,1.3048644E0,0E0,0E0,0E0,0E0],"parents":[2147483647,0,0,1,1,2,2],"right_children":[2,4,6,-1,-1,-1,-1],"split_conditions":[-3.6988127E-1,1.0742626E0,1.0467091E0,-4.3547194E-2,1.4923227E-2,4.406541E-2,-8.432428E-3],"split_indices":[25,657,341,0,0,0,0],"split_type":[0,0,0,0,0,0,0],"sum_hessian":[1.4481028E1,7.400757E0,7.0802703E0,6.0449433E0,1.3558135E0,6.002172E0,1.0780987E0],"tree_param":{"num_deleted":"0","num_feature":"768","num_nodes":"7","size_leaf_vector":"1"}},{"base_weights":[-1.9627273E-2,-6.767777E-1,6.3409144E-1,1.7795082E-2,-4.368863E-2,-1.4288361E-2,4.3477993E-2],"categories":[],"categories_nodes":[],"categories_segments":[],"categories_sizes":[],"default_left":[0,0,0,0,0,0,0],"id":67,"left_children":[1,3,5,-1,-1,-1,-1],"loss_changes":[6.971006E0,1.9542713E0,2.0138206E0,0E0,0E0,0E0,0E0],"parents":[2147483647,0,0,1,1,2,2],"right_children":[2,4,6,-1,-1,-1,-1],"split_conditions":[-5.463467E-1,-8.820836E-1,-5.5889197E-2,1.7795082E-2,-4.368863E-2,-1.4288361E-2,4.3477993E-2],"split_indices":[268,294,638,0,0,0,0],"split_type":[0,0,0,0,0,0,0],"sum_hessian":[1.4228109E1,7.07784E0,7.1502695E0,1.0046489E0,6.073191E0,1.4137676E0,5.736502E0],"tree_param":{"num_deleted":"0","num_feature":"768","num_nodes":"7","size_leaf_vector":"1"}},{"base_weights":[-3.5607525E-5,-6.4920014E-1,6.517302E-1,-4.2611275E-2,1.707712E-2,-1.2128304E-2,4.299828E-2],"categories":[],"categories_nodes":[],"categories_segments":[],"categories_sizes":[],"default_left":[0,0,0,0,0,0,0],"id":68,"left_children":[1,3,5,-1,-1,-1,-1],"loss_changes":[6.466153E0,1.8311634E0,1.6287606E0,0E0,0E0,0E0,0E0],"parents":[2147483647,0,0,1,1,2,2],"right_children":[2,4,6,-1,-1,-1,-1],"split_conditions":[-5.463467E-1,2.3365235E-1,-5.5404633E-1,-4.2611275E-2,1.707712E-2,-1.2128304E-2,4.299828E-2],"split_indices":[268,75,25,0,0,0,0],"split_type":[0,0,0,0,0,0,0],"sum_hessian":[1.3282684E1,6.656594E0,6.6260905E0,5.6405334E0,1.0160601E0,1.2203332E0,5.405757E0],"tree_param":{"num_deleted":"0","num_feature":"768","num_nodes":"7","size_leaf_vector":"1"}},{"base_weights":[3.2183172E-3,-6.211972E-1,6.7014384E-1,6.3792416E-3,-4.3530036E-2,-1.0919041E-2,4.374239E-2],"categories":[],"categories_nodes":[],"categories_segments":[],"categories_sizes":[],"default_left":[0,0,0,0,0,0,0],"id":69,"left_children":[1,3,5,-1,-1,-1,-1],"loss_changes":[6.159485E0,1.5381272E0,1.4914615E0,0E0,0E0,0E0,0E0],"parents":[2147483647,0,0,1,1,2,2],"right_children":[2,4,6,-1,-1,-1,-1],"split_conditions":[-5.270643E-1,-2.4288744E-1,-8.4278256E-2,6.3792416E-3,-4.3530036E-2,-1.0919041E-2,4.374239E-2],"split_indices":[268,374,638,0,0,0,0],"split_type":[0,0,0,0,0,0,0],"sum_hessian":[1.2791212E1,6.6415563E0,6.149656E0,1.7814784E0,4.860078E0,1.1389949E0,5.0106606E0],"tree_param":{"num_deleted":"0","num_feature":"768","num_nodes":"7","size_leaf_vector":"1"}},{"base_weights":[2.11788E-2,-6.3680995E-1,6.597132E-1,-4.208686E-2,1.2441633E-2,-1.2478825E-2,4.323314E-2],"categories":[],"categories_nodes":[],"categories_segments":[],"categories_sizes":[],"default_left":[0,0,0,0,0,0,0],"id":70,"left_children":[1,3,5,-1,-1,-1,-1],"loss_changes":[6.144957E0,1.5197332E0,1.5960233E0,0E0,0E0,0E0,0E0],"parents":[2147483647,0,0,1,1,2,2],"right_children":[2,4,6,-1,-1,-1,-1],"split_conditions":[-3.6433956E-1,1.0621812E0,2.3579113E-1,-4.208686E-2,1.2441633E-2,-1.2478825E-2,4.323314E-2],"split_indices":[25,657,637,0,0,0,0],"split_type":[0,0,0,0,0,0,0],"sum_hessian":[1.2625768E1,6.219489E0,6.4062786E0,5.0910544E0,1.1284348E0,1.138299E0,5.2679796E0],"tree_param":{"num_deleted":"0","num_feature":"768","num_nodes":"7","size_leaf_vector":"1"}},{"base_weights":[-4.3210737E-2,5.528777E-1,-7.832156E-1,4.0269013E-2,-1.7188026E-2,-4.2602774E-2,-1.05407415E-2],"categories":[],"categories_nodes":[],"categories_segments":[],"categories_sizes":[],"default_left":[0,0,0,0,0,0,0],"id":71,"left_children":[1,3,5,-1,-1,-1,-1],"loss_changes":[6.218125E0,2.0541236E0,6.7237616E-2,0E0,0E0,0E0,0E0],"parents":[2147483647,0,0,1,1,2,2],"right_children":[2,4,6,-1,-1,-1,-1],"split_conditions":[-2.2505333E-1,1.0437102E0,-3.406613E-1,4.0269013E-2,-1.7188026E-2,-4.2602774E-2,-1.05407415E-2],"split_indices":[381,341,82,0,0,0,0],"split_type":[0,0,0,0,0,0,0],"sum_hessian":[1.2114924E1,6.849993E0,5.264931E0,5.4242473E0,1.4257462E0,4.263603E0,1.0013279E0],"tree_param":{"num_deleted":"0","num_feature":"768","num_nodes":"7","size_leaf_vector":"1"}},{"base_weights":[-1.5188113E-4,-6.3764465E-1,5.741897E-1,8.10052E-3,-4.04842E-2,-1.2586675E-2,4.1564465E-2],"categories":[],"categories_nodes":[],"categories_segments":[],"categories_sizes":[],"default_left":[0,0,0,0,0,0,0],"id":72,"left_children":[1,3,5,-1,-1,-1,-1],"loss_changes":[5.1478734E0,1.0478883E0,1.7798557E0,0E0,0E0,0E0,0E0],"parents":[2147483647,0,0,1,1,2,2],"right_children":[2,4,6,-1,-1,-1,-1],"split_conditions":[-6.2080806E-1,7.33181E-1,-5.3825384E-1,8.10052E-3,-4.04842E-2,-1.2586675E-2,4.1564465E-2],"split_indices":[268,341,25,0,0,0,0],"split_type":[0,0,0,0,0,0,0],"sum_hessian":[1.205993E1,5.6634936E0,6.396436E0,1.0130478E0,4.650446E0,1.5234094E0,4.873027E0],"tree_param":{"num_deleted":"0","num_feature":"768","num_nodes":"7","size_leaf_vector":"1"}},{"base_weights":[-1.8871991E-2,-6.289489E-1,5.991863E-1,-3.9827146E-2,7.935368E-3,-1.2221341E-2,4.163434E-2],"categories":[],"categories_nodes":[],"categories_segments":[],"categories_sizes":[],"default_left":[0,0,0,0,0,0,0],"id":73,"left_children":[1,3,5,-1,-1,-1,-1],"loss_changes":[5.2132587E0,1.042913E0,1.5595081E0,0E0,0E0,0E0,0E0],"parents":[2147483647,0,0,1,1,2,2],"right_children":[2,4,6,-1,-1,-1,-1],"split_conditions":[-5.463467E-1,5.4818326E-1,-5.5889197E-2,-3.9827146E-2,7.935368E-3,-1.2221341E-2,4.163434E-2],"split_indices":[268,637,638,0,0,0,0],"split_type":[0,0,0,0,0,0,0],"sum_hessian":[1.1826501E1,5.9428115E0,5.8836894E0,4.890872E0,1.0519397E0,1.2653426E0,4.6183467E0],"tree_param":{"num_deleted":"0","num_feature":"768","num_nodes":"7","size_leaf_vector":"1"}},{"base_weights":[4.2860648E-3,-5.28862E-1,3.9025035E-2,-4.2180076E-2,1.8762141E-2],"categories":[],"categories_nodes":[],"categories_segments":[],"categories_sizes":[],"default_left":[0,0,0,0,0],"id":74,"left_children":[1,3,-1,-1,-1],"loss_changes":[5.298473E0,2.4777167E0,0E0,0E0,0E0],"parents":[2147483647,0,0,1,1],"right_children":[2,4,-1,-1,-1],"split_conditions":[-2.6581088E-1,1.02644E0,3.9025035E-2,-4.2180076E-2,1.8762141E-2],"split_indices":[25,657,0,0,0],"split_type":[0,0,0,0,0],"sum_hessian":[1.0805837E1,6.5948124E0,4.2110243E0,4.9414883E0,1.6533242E0],"tree_param":{"num_deleted":"0","num_feature":"768","num_nodes":"5","size_leaf_vector":"1"}},{"base_weights":[-2.4021024E-2,-7.3707783E-1,4.8159114E-1,-9.590644E-3,-4.0716894E-2,-2.6987842E-1,4.1386195E-2,1.41755855E-2,-3.1926766E-2],"categories":[],"categories_nodes":[],"categories_segments":[],"categories_sizes":[],"default_left":[0,0,0,0,0,0,0,0,0],"id":75,"left_children":[1,3,5,-1,-1,7,-1,-1,-1],"loss_changes":[4.9121943E0,8.1376314E-2,2.3044655E0,0E0,0E0,8.4961915E-1,0E0,0E0,0E0],"parents":[2147483647,0,0,1,1,2,2,5,5],"right_children":[2,4,6,-1,-1,8,-1,-1,-1],"split_conditions":[-4.7585082E-1,-8.6512357E-1,-6.2080806E-1,-9.590644E-3,-4.0716894E-2,6.027881E-1,4.1386195E-2,1.41755855E-2,-3.1926766E-2],"split_indices":[25,262,268,0,0,43,0,0,0],"split_type":[0,0,0,0,0,0,0,0,0],"sum_hessian":[1.1640339E1,4.6395135E0,7.0008254E0,1.0080268E0,3.631487E0,2.2772083E0,4.723617E0,1.0028272E0,1.2743813E0],"tree_param":{"num_deleted":"0","num_feature":"768","num_nodes":"9","size_leaf_vector":"1"}},{"base_weights":[5.0785574E-3,-5.741565E-1,6.0793376E-1,5.681665E-3,-4.094118E-2,-1.0533971E-2,4.0896796E-2],"categories":[],"categories_nodes":[],"categories_segments":[],"categories_sizes":[],"default_left":[0,0,0,0,0,0,0],"id":76,"left_children":[1,3,5,-1,-1,-1,-1],"loss_changes":[4.425092E0,1.1813514E0,1.2391021E0,0E0,0E0,0E0,0E0],"parents":[2147483647,0,0,1,1,2,2],"right_children":[2,4,6,-1,-1,-1,-1],"split_conditions":[-5.463467E-1,8.7971497E-1,-5.5889197E-2,5.681665E-3,-4.094118E-2,-1.0533971E-2,4.0896796E-2],"split_indices":[268,341,638,0,0,0,0],"split_type":[0,0,0,0,0,0,0],"sum_hessian":[1.0672688E1,5.4672503E0,5.2054367E0,1.5750754E0,3.8921752E0,1.0620836E0,4.143353E0],"tree_param":{"num_deleted":"0","num_feature":"768","num_nodes":"7","size_leaf_vector":"1"}},{"base_weights":[-8.05758E-2,-7.1523285E-1,4.7530487E-1,-6.033062E-3,-4.068668E-2,-1.4962934E-2,3.96018E-2],"categories":[],"categories_nodes":[],"categories_segments":[],"categories_sizes":[],"default_left":[0,0,0,0,0,0,0],"id":77,"left_children":[1,3,5,-1,-1,-1,-1],"loss_changes":[4.46909E0,2.4524665E-1,1.9150803E0,0E0,0E0,0E0,0E0],"parents":[2147483647,0,0,1,1,2,2],"right_children":[2,4,6,-1,-1,-1,-1],"split_conditions":[-2.9984966E-1,5.287683E-1,-1.20446384E-1,-6.033062E-3,-4.068668E-2,-1.4962934E-2,3.96018E-2],"split_indices":[640,372,274,0,0,0,0],"split_type":[0,0,0,0,0,0,0],"sum_hessian":[1.0704113E1,4.8640685E0,5.840044E0,1.007508E0,3.8565605E0,1.7109914E0,4.1290526E0],"tree_param":{"num_deleted":"0","num_feature":"768","num_nodes":"7","size_leaf_vector":"1"}},{"base_weights":[-2.74907E-4,-6.685031E-1,5.4073685E-1,-2.3221462E-3,-3.9992925E-2,-1.0053241E-2,3.9131414E-2],"categories":[],"categories_nodes":[],"categories_segments":[],"categories_sizes":[],"default_left":[0,0,0,0,0,0,0],"id":78,"left_children":[1,3,5,-1,-1,-1,-1],"loss_changes":[4.3900714E0,4.0676737E-1,1.3615038E0,0E0,0E0,0E0,0E0],"parents":[2147483647,0,0,1,1,2,2],"right_children":[2,4,6,-1,-1,-1,-1],"split_conditions":[-2.667474E-1,-1.6928652E-1,-1.20446384E-1,-2.3221462E-3,-3.9992925E-2,-1.0053241E-2,3.9131414E-2],"split_indices":[640,374,274,0,0,0,0],"split_type":[0,0,0,0,0,0,0],"sum_hessian":[1.0143491E1,4.4327483E0,5.710742E0,1.008824E0,3.4239244E0,1.4457823E0,4.26496E0],"tree_param":{"num_deleted":"0","num_feature":"768","num_nodes":"7","size_leaf_vector":"1"}},{"base_weights":[3.6927648E-2,-6.578587E-1,5.396072E-1,-3.7667637E-3,-3.9605446E-2,-1.3098225E-2,3.8880404E-2],"categories":[],"categories_nodes":[],"categories_segments":[],"categories_sizes":[],"default_left":[0,0,0,0,0,0,0],"id":79,"left_children":[1,3,5,-1,-1,-1,-1],"loss_changes":[4.147335E0,3.3203602E-1,1.5104305E0,0E0,0E0,0E0,0E0],"parents":[2147483647,0,0,1,1,2,2],"right_children":[2,4,6,-1,-1,-1,-1],"split_conditions":[3.7109604E-1,9.350823E-1,7.05862E-1,-3.7667637E-3,-3.9605446E-2,-1.3098225E-2,3.8880404E-2],"split_indices":[637,341,657,0,0,0,0],"split_type":[0,0,0,0,0,0,0],"sum_hessian":[9.858399E0,4.0088296E0,5.84957E0,1.0432465E0,2.9655833E0,1.3161553E0,4.533415E0],"tree_param":{"num_deleted":"0","num_feature":"768","num_nodes":"7","size_leaf_vector":"1"}},{"base_weights":[-2.333476E-2,6.260434E-1,-6.352883E-1,-1.3464058E-3,3.9187506E-2,-4.0382456E-2,3.1363436E-3],"categories":[],"categories_nodes":[],"categories_segments":[],"categories_sizes":[],"default_left":[0,0,0,0,0,0,0],"id":80,"left_children":[1,3,5,-1,-1,-1,-1],"loss_changes":[4.4515777E0,5.82638E-1,7.422404E-1,0E0,0E0,0E0,0E0],"parents":[2147483647,0,0,1,1,2,2],"right_children":[2,4,6,-1,-1,-1,-1],"split_conditions":[-3.4101096E-1,4.1615114E-1,9.736082E-1,-1.3464058E-3,3.9187506E-2,-4.0382456E-2,3.1363436E-3],"split_indices":[381,637,657,0,0,0,0],"split_type":[0,0,0,0,0,0,0],"sum_hessian":[9.20123E0,4.452941E0,4.748289E0,1.0275809E0,3.42536E0,3.6820226E0,1.0662667E0],"tree_param":{"num_deleted":"0","num_feature":"768","num_nodes":"7","size_leaf_vector":"1"}},{"base_weights":[1.9683914E-2,4.8839563E-1,-6.3169885E-1,-1.7489815E-2,3.9382458E-2,-4.0027652E-2,5.738354E-4],"categories":[],"categories_nodes":[],"categories_segments":[],"categories_sizes":[],"default_left":[0,0,0,0,0,0,0],"id":81,"left_children":[1,3,5,-1,-1,-1,-1],"loss_changes":[3.5681968E0,1.9743664E0,5.417466E-1,0E0,0E0,0E0,0E0],"parents":[2147483647,0,0,1,1,2,2],"right_children":[2,4,6,-1,-1,-1,-1],"split_conditions":[1.024549E0,-5.179904E-1,-6.8149614E-1,-1.7489815E-2,3.9382458E-2,-4.0027652E-2,5.738354E-4],"split_indices":[341,25,268,0,0,0,0],"split_type":[0,0,0,0,0,0,0],"sum_hessian":[9.676591E0,5.772863E0,3.903728E0,1.4743623E0,4.2985005E0,2.898176E0,1.005552E0],"tree_param":{"num_deleted":"0","num_feature":"768","num_nodes":"7","size_leaf_vector":"1"}},{"base_weights":[-2.3297379E-2,-5.769503E-1,5.3493863E-1,2.5292865E-3,-3.9403185E-2,3.9331656E-2,-1.3876651E-2],"categories":[],"categories_nodes":[],"categories_segments":[],"categories_sizes":[],"default_left":[0,0,0,0,0,0,0],"id":82,"left_children":[1,3,5,-1,-1,-1,-1],"loss_changes":[3.475879E0,7.852144E-1,1.3679076E0,0E0,0E0,0E0,0E0],"parents":[2147483647,0,0,1,1,2,2],"right_children":[2,4,6,-1,-1,-1,-1],"split_conditions":[-5.463467E-1,-1.705811E-1,1.744934E-1,2.5292865E-3,-3.9403185E-2,3.9331656E-2,-1.3876651E-2],"split_indices":[268,374,436,0,0,0,0],"split_type":[0,0,0,0,0,0,0],"sum_hessian":[9.247697E0,4.626076E0,4.62162E0,1.3559352E0,3.2701411E0,3.5528045E0,1.068816E0],"tree_param":{"num_deleted":"0","num_feature":"768","num_nodes":"7","size_leaf_vector":"1"}},{"base_weights":[-2.3672245E-2,4.7551137E-1,-3.832905E-2,-1.4883301E-2,3.6285963E-2],"categories":[],"categories_nodes":[],"categories_segments":[],"categories_sizes":[],"default_left":[0,0,0,0,0],"id":83,"left_children":[1,3,-1,-1,-1],"loss_changes":[4.037567E0,1.4814377E0,0E0,0E0,0E0],"parents":[2147483647,0,0,1,1],"right_children":[2,4,-1,-1,-1],"split_conditions":[-1.8889266E-1,-7.137074E-1,-3.832905E-2,-1.4883301E-2,3.6285963E-2],"split_indices":[381,656,0,0,0],"split_type":[0,0,0,0,0],"sum_hessian":[8.904464E0,5.541135E0,3.3633287E0,1.3083804E0,4.232754E0],"tree_param":{"num_deleted":"0","num_feature":"768","num_nodes":"5","size_leaf_vector":"1"}},{"base_weights":[9.833539E-3,-5.3112805E-1,5.926415E-1,7.975437E-3,-3.9314833E-2,-2.01321E-3,3.8025964E-2],"categories":[],"categories_nodes":[],"categories_segments":[],"categories_sizes":[],"default_left":[0,0,0,0,0,0,0],"id":84,"left_children":[1,3,5,-1,-1,-1,-1],"loss_changes":[3.4035127E0,1.1137546E0,5.819241E-1,0E0,0E0,0E0,0E0],"parents":[2147483647,0,0,1,1,2,2],"right_children":[2,4,6,-1,-1,-1,-1],"split_conditions":[-5.463467E-1,4.9783215E-1,1.0799994E-3,7.975437E-3,-3.9314833E-2,-2.01321E-3,3.8025964E-2],"split_indices":[268,11,638,0,0,0,0],"split_type":[0,0,0,0,0,0,0],"sum_hessian":[8.79693E0,4.6082406E0,4.188689E0,1.3443973E0,3.2638433E0,1.0374856E0,3.1512036E0],"tree_param":{"num_deleted":"0","num_feature":"768","num_nodes":"7","size_leaf_vector":"1"}},{"base_weights":[-6.872533E-3,-6.502722E-1,5.048204E-1,-9.8447865E-3,-3.6289275E-2,-8.237756E-3,3.68086E-2],"categories":[],"categories_nodes":[],"categories_segments":[],"categories_sizes":[],"default_left":[0,0,0,0,0,0,0],"id":85,"left_children":[1,3,5,-1,-1,-1,-1],"loss_changes":[3.2794065E0,8.006811E-3,9.819498E-1,0E0,0E0,0E0,0E0],"parents":[2147483647,0,0,1,1,2,2],"right_children":[2,4,6,-1,-1,-1,-1],"split_conditions":[-2.9984966E-1,-2.9230796E-2,3.3445332E-2,-9.8447865E-3,-3.6289275E-2,-8.237756E-3,3.68086E-2],"split_indices":[640,374,65,0,0,0,0],"split_type":[0,0,0,0,0,0,0],"sum_hessian":[7.963941E0,3.4079633E0,4.555978E0,1.0016372E0,2.406326E0,1.2438622E0,3.3121157E0],"tree_param":{"num_deleted":"0","num_feature":"768","num_nodes":"7","size_leaf_vector":"1"}},{"base_weights":[8.236846E-4,-5.73872E-1,5.3730786E-1,3.6307953E-3,-3.9274566E-2,-1.1722702E-2,3.899624E-2],"categories":[],"categories_nodes":[],"categories_segments":[],"categories_sizes":[],"default_left":[0,0,0,0,0,0,0],"id":86,"left_children":[1,3,5,-1,-1,-1,-1],"loss_changes":[3.320961E0,7.68605E-1,1.2258102E0,0E0,0E0,0E0,0E0],"parents":[2147483647,0,0,1,1,2,2],"right_children":[2,4,6,-1,-1,-1,-1],"split_conditions":[-6.2080806E-1,8.7971497E-1,-5.5889197E-2,3.6307953E-3,-3.9274566E-2,-1.1722702E-2,3.899624E-2],"split_indices":[268,341,638,0,0,0,0],"split_type":[0,0,0,0,0,0,0],"sum_hessian":[8.77122E0,4.2011495E0,4.5700707E0,1.1980411E0,3.0031085E0,1.1011068E0,3.468964E0],"tree_param":{"num_deleted":"0","num_feature":"768","num_nodes":"7","size_leaf_vector":"1"}},{"base_weights":[3.8853418E-2,-4.7131968E-1,6.3394374E-1,-3.5797443E-2,1.5920533E-2,4.23339E-3,3.8379434E-2],"categories":[],"categories_nodes":[],"categories_segments":[],"categories_sizes":[],"default_left":[0,0,0,0,0,0,0],"id":87,"left_children":[1,3,5,-1,-1,-1,-1],"loss_changes":[3.15381E0,1.3169403E0,2.8495562E-1,0E0,0E0,0E0,0E0],"parents":[2147483647,0,0,1,1,2,2],"right_children":[2,4,6,-1,-1,-1,-1],"split_conditions":[9.2961353E-1,6.986897E-1,-5.800446E-1,-3.5797443E-2,1.5920533E-2,4.23339E-3,3.8379434E-2],"split_indices":[657,637,643,0,0,0,0],"split_type":[0,0,0,0,0,0,0],"sum_hessian":[8.403914E0,4.6367755E0,3.7671387E0,3.6114945E0,1.0252811E0,1.0568894E0,2.7102492E0],"tree_param":{"num_deleted":"0","num_feature":"768","num_nodes":"7","size_leaf_vector":"1"}},{"base_weights":[-3.38081E-2,5.2832997E-1,-6.059613E-1,-1.0389373E-2,3.842056E-2,-3.7933923E-2,-8.884032E-4],"categories":[],"categories_nodes":[],"categories_segments":[],"categories_sizes":[],"default_left":[0,0,0,0,0,0,0],"id":88,"left_children":[1,3,5,-1,-1,-1,-1],"loss_changes":[3.139955E0,1.035629E0,4.1865182E-1,0E0,0E0,0E0,0E0],"parents":[2147483647,0,0,1,1,2,2],"right_children":[2,4,6,-1,-1,-1,-1],"split_conditions":[-3.4101096E-1,-5.38823E-1,8.899259E-1,-1.0389373E-2,3.842056E-2,-3.7933923E-2,-8.884032E-4],"split_indices":[381,169,657,0,0,0,0],"split_type":[0,0,0,0,0,0,0],"sum_hessian":[7.767265E0,3.9565578E0,3.810707E0,1.0061368E0,2.950421E0,2.7951388E0,1.0155684E0],"tree_param":{"num_deleted":"0","num_feature":"768","num_nodes":"7","size_leaf_vector":"1"}},{"base_weights":[1.9528978E-2,-5.0037515E-1,5.6062543E-1,3.709906E-3,-3.8465243E-2,-4.6996865E-3,3.8122214E-2],"categories":[],"categories_nodes":[],"categories_segments":[],"categories_sizes":[],"default_left":[0,0,0,0,0,0,0],"id":89,"left_children":[1,3,5,-1,-1,-1,-1],"loss_changes":[2.817811E0,8.49475E-1,7.178594E-1,0E0,0E0,0E0,0E0],"parents":[2147483647,0,0,1,1,2,2],"right_children":[2,4,6,-1,-1,-1,-1],"split_conditions":[-5.463467E-1,1.024549E0,-2.854533E-2,3.709906E-3,-3.8465243E-2,-4.6996865E-3,3.8122214E-2],"split_indices":[268,341,638,0,0,0,0],"split_type":[0,0,0,0,0,0,0],"sum_hessian":[8.019278E0,4.128107E0,3.8911703E0,1.5470035E0,2.5811033E0,1.0428501E0,2.8483202E0],"tree_param":{"num_deleted":"0","num_feature":"768","num_nodes":"7","size_leaf_vector":"1"}},{"base_weights":[-7.059055E-3,-5.6660527E-1,5.0085604E-1,-3.6934752E-2,5.581851E-4,-7.2903656E-3,3.576423E-2],"categories":[],"categories_nodes":[],"categories_segments":[],"categories_sizes":[],"default_left":[0,0,0,0,0,0,0],"id":90,"left_children":[1,3,5,-1,-1,-1,-1],"loss_changes":[2.7208252E0,4.605782E-1,8.011708E-1,0E0,0E0,0E0,0E0],"parents":[2147483647,0,0,1,1,2,2],"right_children":[2,4,6,-1,-1,-1,-1],"split_conditions":[-6.1328256E-1,-4.1672924E-1,3.75596E-1,-3.6934752E-2,5.581851E-4,-7.2903656E-3,3.576423E-2],"split_indices":[643,25,637,0,0,0,0],"split_type":[0,0,0,0,0,0,0],"sum_hessian":[7.5750203E0,3.5493343E0,4.025686E0,2.5201669E0,1.0291675E0,1.0821645E0,2.9435215E0],"tree_param":{"num_deleted":"0","num_feature":"768","num_nodes":"7","size_leaf_vector":"1"}},{"base_weights":[-2.6299119E-2,-4.852538E-1,5.1786315E-1,-3.5902996E-2,1.1420467E-2,-4.0678787E-3,3.6190286E-2],"categories":[],"categories_nodes":[],"categories_segments":[],"categories_sizes":[],"default_left":[0,0,0,0,0,0,0],"id":91,"left_children":[1,3,5,-1,-1,-1,-1],"loss_changes":[2.4083307E0,1.0282217E0,6.0623586E-1,0E0,0E0,0E0,0E0],"parents":[2147483647,0,0,1,1,2,2],"right_children":[2,4,6,-1,-1,-1,-1],"split_conditions":[9.553917E-1,6.851796E-1,3.75596E-1,-3.5902996E-2,1.1420467E-2,-4.0678787E-3,3.6190286E-2],"split_indices":[657,637,637,0,0,0,0],"split_type":[0,0,0,0,0,0,0],"sum_hessian":[7.6369224E0,4.2015376E0,3.435385E0,3.1634264E0,1.0381112E0,1.0334263E0,2.4019587E0],"tree_param":{"num_deleted":"0","num_feature":"768","num_nodes":"7","size_leaf_vector":"1"}},{"base_weights":[6.0961656E-3,-4.5981628E-1,3.339681E-2,1.4368589E-2,-3.551612E-2],"categories":[],"categories_nodes":[],"categories_segments":[],"categories_sizes":[],"default_left":[0,0,0,0,0],"id":92,"left_children":[1,3,-1,-1,-1],"loss_changes":[2.8185859E0,1.2096411E0,0E0,0E0,0E0],"parents":[2147483647,0,0,1,1],"right_children":[2,4,-1,-1,-1],"split_conditions":[-2.6581088E-1,-2.2870907E-1,3.339681E-2,1.4368589E-2,-3.551612E-2],"split_indices":[25,16,0,0,0],"split_type":[0,0,0,0,0],"sum_hessian":[7.1445775E0,4.372051E0,2.7725265E0,1.0608058E0,3.311245E0],"tree_param":{"num_deleted":"0","num_feature":"768","num_nodes":"5","size_leaf_vector":"1"}},{"base_weights":[1.6489869E-2,-4.6648908E-1,6.007239E-1,-3.4905832E-2,9.486879E-3,3.5030287E-2,7.701024E-3],"categories":[],"categories_nodes":[],"categories_segments":[],"categories_sizes":[],"default_left":[0,0,0,0,0,0,0],"id":93,"left_children":[1,3,5,-1,-1,-1,-1],"loss_changes":[2.4682403E0,8.632474E-1,6.8168044E-2,0E0,0E0,0E0,0E0],"parents":[2147483647,0,0,1,1,2,2],"right_children":[2,4,6,-1,-1,-1,-1],"split_conditions":[9.553917E-1,1.999281E-1,-2.6576608E-1,-3.4905832E-2,9.486879E-3,3.5030287E-2,7.701024E-3],"split_indices":[657,401,730,0,0,0,0],"split_type":[0,0,0,0,0,0,0],"sum_hessian":[6.754148E0,3.8078136E0,2.9463344E0,2.7672322E0,1.0405812E0,1.9434026E0,1.0029316E0],"tree_param":{"num_deleted":"0","num_feature":"768","num_nodes":"7","size_leaf_vector":"1"}},{"base_weights":[2.0759203E-2,-4.7511202E-1,6.1020195E-1,-3.725728E-2,8.602367E-3,3.5773378E-2,7.250331E-3],"categories":[],"categories_nodes":[],"categories_segments":[],"categories_sizes":[],"default_left":[0,0,0,0,0,0,0],"id":94,"left_children":[1,3,5,-1,-1,-1,-1],"loss_changes":[2.6408534E0,9.89843E-1,9.764516E-2,0E0,0E0,0E0,0E0],"parents":[2147483647,0,0,1,1,2,2],"right_children":[2,4,6,-1,-1,-1,-1],"split_conditions":[9.553917E-1,-3.3221218E-1,-2.5575212E-1,-3.725728E-2,8.602367E-3,3.5773378E-2,7.250331E-3],"split_indices":[657,25,730,0,0,0,0],"split_type":[0,0,0,0,0,0,0],"sum_hessian":[7.0432363E0,3.9305818E0,3.1126544E0,2.6665344E0,1.2640475E0,2.0995657E0,1.0130887E0],"tree_param":{"num_deleted":"0","num_feature":"768","num_nodes":"7","size_leaf_vector":"1"}},{"base_weights":[-2.2876145E-2,4.4548783E-1,-5.742316E-1,-1.0453629E-2,3.59385E-2,-3.5947565E-2,-3.3959036E-3],"categories":[],"categories_nodes":[],"categories_segments":[],"categories_sizes":[],"default_left":[0,0,0,0,0,0,0],"id":95,"left_children":[1,3,5,-1,-1,-1,-1],"loss_changes":[2.2867777E0,1.0116823E0,2.4787116E-1,0E0,0E0,0E0,0E0],"parents":[2147483647,0,0,1,1,2,2],"right_children":[2,4,6,-1,-1,-1,-1],"split_conditions":[1.0023017E0,-4.954193E-1,-6.986371E-1,-1.0453629E-2,3.59385E-2,-3.5947565E-2,-3.3959036E-3],"split_indices":[341,82,268,0,0,0,0],"split_type":[0,0,0,0,0,0,0],"sum_hessian":[6.864791E0,3.8155668E0,3.0492241E0,1.1930215E0,2.6225455E0,2.0447893E0,1.0044347E0],"tree_param":{"num_deleted":"0","num_feature":"768","num_nodes":"7","size_leaf_vector":"1"}},{"base_weights":[2.026042E-2,-4.4289556E-1,5.4137576E-1,-3.4874644E-2,1.10749025E-2,7.2607066E-4,3.5559453E-2],"categories":[],"categories_nodes":[],"categories_segments":[],"categories_sizes":[],"default_left":[0,0,0,0,0,0,0],"id":96,"left_children":[1,3,5,-1,-1,-1,-1],"loss_changes":[2.1161976E0,9.437866E-1,3.572291E-1,0E0,0E0,0E0,0E0],"parents":[2147483647,0,0,1,1,2,2],"right_children":[2,4,6,-1,-1,-1,-1],"split_conditions":[9.2961353E-1,-5.1720288E-2,-1.471699E0,-3.4874644E-2,1.10749025E-2,7.2607066E-4,3.5559453E-2],"split_indices":[657,640,675,0,0,0,0],"split_type":[0,0,0,0,0,0,0],"sum_hessian":[6.7744555E0,3.6661563E0,3.1082993E0,2.6144671E0,1.0516891E0,1.022245E0,2.086054E0],"tree_param":{"num_deleted":"0","num_feature":"768","num_nodes":"7","size_leaf_vector":"1"}},{"base_weights":[3.150661E-2,-4.6869266E-1,3.393517E-2,6.6958363E-3,-3.5216644E-2],"categories":[],"categories_nodes":[],"categories_segments":[],"categories_sizes":[],"default_left":[0,0,0,0,0],"id":97,"left_children":[1,3,-1,-1,-1],"loss_changes":[2.6101E0,7.453948E-1,0E0,0E0,0E0],"parents":[2147483647,0,0,1,1],"right_children":[2,4,-1,-1,-1],"split_conditions":[-3.0525243E-1,8.714868E-4,3.393517E-2,6.6958363E-3,-3.5216644E-2],"split_indices":[25,16,0,0,0],"split_type":[0,0,0,0,0],"sum_hessian":[6.080022E0,3.585052E0,2.4949698E0,1.1291457E0,2.4559064E0],"tree_param":{"num_deleted":"0","num_feature":"768","num_nodes":"5","size_leaf_vector":"1"}},{"base_weights":[1.165257E-3,-2.8500443E-2,4.187653E-1,-9.817469E-3,3.2496225E-2],"categories":[],"categories_nodes":[],"categories_segments":[],"categories_sizes":[],"default_left":[0,0,0,0,0],"id":98,"left_children":[1,-1,3,-1,-1],"loss_changes":[1.9910178E0,0E0,8.130055E-1,0E0,0E0],"parents":[2147483647,0,0,2,2],"right_children":[2,-1,4,-1,-1],"split_conditions":[3.7109604E-1,-2.8500443E-2,7.2245425E-1,-9.817469E-3,3.2496225E-2],"split_indices":[637,0,657,0,0],"split_type":[0,0,0,0,0],"sum_hessian":[6.3465557E0,2.5262725E0,3.8202832E0,1.084641E0,2.7356422E0],"tree_param":{"num_deleted":"0","num_feature":"768","num_nodes":"5","size_leaf_vector":"1"}},{"base_weights":[1.685486E-2,-4.5752004E-1,4.8689488E-1,4.703187E-3,-3.537884E-2,-2.4486014E-3,3.3791166E-2],"categories":[],"categories_nodes":[],"categories_segments":[],"categories_sizes":[],"default_left":[0,0,0,0,0,0,0],"id":99,"left_children":[1,3,5,-1,-1,-1,-1],"loss_changes":[1.8310713E0,6.328133E-1,4.4893914E-1,0E0,0E0,0E0,0E0],"parents":[2147483647,0,0,1,1,2,2],"right_children":[2,4,6,-1,-1,-1,-1],"split_conditions":[-5.463467E-1,9.695684E-1,1.680097E-2,4.703187E-3,-3.537884E-2,-2.4486014E-3,3.3791166E-2],"split_indices":[268,341,638,0,0,0,0],"split_type":[0,0,0,0,0,0,0],"sum_hessian":[6.2129426E0,3.1054692E0,3.1074731E0,1.163285E0,1.9421842E0,1.0031058E0,2.1043675E0],"tree_param":{"num_deleted":"0","num_feature":"768","num_nodes":"7","size_leaf_vector":"1"}},{"base_weights":[-1.188643E-2,-4.5336434E-1,3.2354545E-2,-3.62191E-2,1.300513E-2],"categories":[],"categories_nodes":[],"categories_segments":[],"categories_sizes":[],"default_left":[0,0,0,0,0],"id":100,"left_children":[1,3,-1,-1,-1],"loss_changes":[2.2764652E0,1.0914004E0,0E0,0E0,0E0],"parents":[2147483647,0,0,1,1],"right_children":[2,4,-1,-1,-1],"split_conditions":[-2.6581088E-1,9.952471E-1,3.2354545E-2,-3.62191E-2,1.300513E-2],"split_indices":[25,657,0,0,0],"split_type":[0,0,0,0,0],"sum_hessian":[5.81655E0,3.6699243E0,2.1466255E0,2.6485474E0,1.0213767E0],"tree_param":{"num_deleted":"0","num_feature":"768","num_nodes":"5","size_leaf_vector":"1"}},{"base_weights":[-3.5180745E-3,-2.8087229E-2,4.141027E-1,-5.652091E-3,3.2877244E-2],"categories":[],"categories_nodes":[],"categories_segments":[],"categories_sizes":[],"default_left":[0,0,0,0,0],"id":101,"left_children":[1,-1,3,-1,-1],"loss_changes":[1.8319185E0,0E0,6.518085E-1,0E0,0E0],"parents":[2147483647,0,0,2,2],"right_children":[2,-1,4,-1,-1],"split_conditions":[3.7109604E-1,-2.8087229E-2,-4.8839834E-1,-5.652091E-3,3.2877244E-2],"split_indices":[637,0,82,0,0],"split_type":[0,0,0,0,0],"sum_hessian":[5.8602023E0,2.3602242E0,3.499978E0,1.2749279E0,2.2250502E0],"tree_param":{"num_deleted":"0","num_feature":"768","num_nodes":"5","size_leaf_vector":"1"}},{"base_weights":[-1.1765862E-2,4.060246E-1,-2.888867E-2,-8.79605E-3,3.1296566E-2],"categories":[],"categories_nodes":[],"categories_segments":[],"categories_sizes":[],"default_left":[0,0,0,0,0],"id":102,"left_children":[1,3,-1,-1,-1],"loss_changes":[1.9655906E0,7.242283E-1,0E0,0E0,0E0],"parents":[2147483647,0,0,1,1],"right_children":[2,4,-1,-1,-1],"split_conditions":[6.373573E-1,-2.5766421E-2,-2.888867E-2,-8.79605E-3,3.1296566E-2],"split_indices":[736,274,0,0,0],"split_type":[0,0,0,0,0],"sum_hessian":[6.32009E0,3.7987485E0,2.521341E0,1.0966558E0,2.702093E0],"tree_param":{"num_deleted":"0","num_feature":"768","num_nodes":"5","size_leaf_vector":"1"}},{"base_weights":[5.4604933E-3,-5.2522916E-1,4.291286E-1,-3.0855361E-2,-7.6251864E-3,-6.2433E-3,3.2777485E-2],"categories":[],"categories_nodes":[],"categories_segments":[],"categories_sizes":[],"default_left":[0,0,0,0,0,0,0],"id":103,"left_children":[1,3,5,-1,-1,-1,-1],"loss_changes":[1.7188963E0,2.227205E-2,6.1422104E-1,0E0,0E0,0E0,0E0],"parents":[2147483647,0,0,1,1,2,2],"right_children":[2,4,6,-1,-1,-1,-1],"split_conditions":[3.7109604E-1,-7.348974E-1,8.1494427E-1,-3.0855361E-2,-7.6251864E-3,-6.2433E-3,3.2777485E-2],"split_indices":[637,353,657,0,0,0,0],"split_type":[0,0,0,0,0,0,0],"sum_hessian":[5.6426353E0,2.3985174E0,3.244118E0,1.3981956E0,1.0003216E0,1.0713414E0,2.1727767E0],"tree_param":{"num_deleted":"0","num_feature":"768","num_nodes":"7","size_leaf_vector":"1"}},{"base_weights":[-1.0159049E-1,-5.666272E-1,4.1220978E-1,-6.2132473E-3,-3.4013968E-2,-3.9058512E-3,3.1431917E-2],"categories":[],"categories_nodes":[],"categories_segments":[],"categories_sizes":[],"default_left":[0,0,0,0,0,0,0],"id":104,"left_children":[1,3,5,-1,-1,-1,-1],"loss_changes":[1.7738495E0,1.0675824E-1,4.3554723E-1,0E0,0E0,0E0,0E0],"parents":[2147483647,0,0,1,1,2,2],"right_children":[2,4,6,-1,-1,-1,-1],"split_conditions":[-5.463467E-1,-1.6928652E-1,-3.500257E-1,-6.2132473E-3,-3.4013968E-2,-3.9058512E-3,3.1431917E-2],"split_indices":[268,374,25,0,0,0,0],